{"layer_0_weights": [[-0.158549964427948, -0.0866299569606781, 0.06484157592058182, -0.0551304817199707, -0.1266452521085739, -0.001649092766456306, 0.12925995886325836, -0.007699919398874044, 0.18117445707321167, 0.3299267888069153, -0.328838586807251, 0.06965772807598114, -0.17737489938735962, 0.05364815518260002, -0.09594343602657318, 0.02711413986980915, -0.21558018028736115, 0.015921836718916893, 0.045744191855192184, 0.06361760199069977, -0.05800757184624672, -0.020868981257081032, -0.06587714701890945, 0.08150775730609894, 0.1676604300737381, 0.1701425015926361, 0.0392179973423481, -0.007365698926150799, 0.12401597946882248, -0.01853126473724842, -0.000342714658472687, -0.16642169654369354, 0.049440380185842514, -0.20956316590309143, 0.03795754536986351, -0.049451347440481186, -0.06231505796313286, -0.16822198033332825, -0.14742670953273773, -0.023418424651026726, -0.18154571950435638, -0.2062842845916748, -0.12700673937797546, 0.26857712864875793, 0.029431354254484177, 0.11985449492931366, -0.0961122065782547, -0.1792413592338562, 0.18801666796207428, -0.10819144546985626, -0.18200238049030304, 0.06349381804466248, -0.09134786576032639, -0.13621480762958527, -0.02459694817662239, 0.0398901142179966, 0.037431079894304276, -0.25738486647605896, -0.06736943125724792, -0.11839760094881058, -0.03653671219944954, -0.004786808975040913, 0.09758676588535309, 0.08826573193073273, 0.06780757009983063, 0.25693270564079285, 0.12627582252025604, -0.16770270466804504, 0.11010152101516724, 0.06374792009592056, 0.08716368675231934, 0.18670989573001862, 0.24299149215221405, 0.09909035265445709, -0.031201103702187538, -0.03311562538146973, 0.03756842017173767, 0.11268870532512665, 0.2061776965856552, -0.13186267018318176, -0.18422631919384003, 0.09192366898059845, 0.10576878488063812, 0.04636704549193382, -0.19330401718616486, -0.13722863793373108, -0.12974487245082855, -0.01789764128625393, 0.13072925806045532, 0.2938756048679352, -0.0790461078286171, 0.15875282883644104, -0.0966682955622673, 0.07392972707748413, -0.10084444284439087, 0.03963816910982132, 0.022679217159748077, -0.004494362976402044, 0.08670632541179657, -0.2197558730840683, -0.020946288481354713, -0.1332831084728241, 0.16168010234832764, -0.0072973957285285, 0.18764033913612366, -0.1243598684668541, 0.1744089424610138, -0.10050582885742188, 0.07578296214342117, -0.029948202893137932, -0.2754290699958801, 0.0024719855282455683, -0.09510214626789093, 0.10498310625553131, -0.24738997220993042, 0.07250358909368515, 0.1007983461022377, -0.2232465296983719, 0.2591641843318939, 0.2522583305835724, -0.27315232157707214, -0.3429403603076935, 0.26958292722702026, -0.10359486192464828, -0.16215476393699646, -0.12434542179107666, -0.1800772249698639, -0.03173399716615677], [-0.07087382674217224, -0.10139206051826477, 0.0007564492407254875, -0.16421280801296234, 0.015715457499027252, -0.061716463416814804, 0.06442569196224213, 0.12734316289424896, -0.0808204784989357, -0.09700339287519455, 0.0520504005253315, 0.09939738363027573, 0.017711902037262917, -0.02894522435963154, -0.04704192653298378, -0.015069958753883839, -0.196102112531662, 0.11170756071805954, -0.08904880285263062, -0.16497902572155, -0.08056965470314026, 0.1697923243045807, 0.013474203646183014, 0.04813569411635399, -0.03158538416028023, 0.09994055330753326, -0.0317997932434082, -0.06190963834524155, -0.08797186613082886, -0.044795285910367966, -0.09555034339427948, -0.06494294852018356, 0.09154416620731354, 0.06936774402856827, 0.006859572138637304, 0.19510214030742645, -0.058486875146627426, 0.1668914407491684, -0.12892843782901764, 0.08830402791500092, 0.016848405823111534, 0.14286401867866516, -0.032020747661590576, 0.04006166011095047, 0.05920243635773659, -0.13886933028697968, -0.0256941020488739, 0.0350935198366642, -0.03847572207450867, 0.12294313311576843, -0.013889892026782036, 0.013814130797982216, -0.016645437106490135, -0.06385872513055801, 0.1296985000371933, 0.21231535077095032, 0.19579362869262695, 0.050320468842983246, -0.07008172571659088, -0.07596433907747269, 0.04906442016363144, 0.05325013026595116, 0.08500666171312332, -0.0848143920302391, -0.012983760796487331, -0.1647874265909195, -0.053240127861499786, 0.23961429297924042, -0.08819536864757538, 0.0847102478146553, 0.05770067870616913, 0.12068309634923935, -0.04420189559459686, -0.11713097244501114, -0.13438522815704346, -0.018498355522751808, -0.0315830335021019, 0.05691142752766609, 0.06307429820299149, -0.010872515849769115, 0.15216276049613953, 0.1096644252538681, -0.03569314256310463, 0.013791036792099476, 0.06334017962217331, 0.18118500709533691, -0.06558505445718765, -0.06655013561248779, -0.025306031107902527, -0.015914078801870346, 0.09792478382587433, -0.00817769393324852, -0.06381893903017044, -0.02103799395263195, -0.07688888162374496, -0.03455398604273796, -0.08095598965883255, 0.11509131640195847, -0.11939006298780441, -0.02631778083741665, -0.03240416571497917, 0.09379883110523224, 0.18999288976192474, -0.16094490885734558, 0.02147841826081276, -0.1175999790430069, 0.2164982110261917, 0.01811438612639904, 0.07957801222801208, -0.13256210088729858, -0.021500717848539352, 0.05599673464894295, -0.0772617906332016, -0.12198597937822342, 0.012731238268315792, 0.0798887237906456, -0.0938420221209526, 0.07944543659687042, 0.05001777037978172, -0.06183624267578125, 0.1481795459985733, -0.06445442885160446, 0.15919646620750427, 0.05509940907359123, 0.032846711575984955, -0.10802315175533295, -0.08557766675949097, 0.09338834136724472], [-0.18754559755325317, -0.08667398989200592, 0.00525536248460412, -0.0208655446767807, 0.1816316694021225, -0.16473740339279175, -0.0032178342808037996, 0.03417641296982765, 0.05199505388736725, -0.045574743300676346, 0.03914368897676468, 0.04122203215956688, -0.13277217745780945, -0.1942097544670105, -0.009052031673491001, -0.04978469759225845, 0.10870945453643799, 0.050653450191020966, 0.04221806302666664, -0.021484538912773132, 0.23359574377536774, -0.25016945600509644, 0.006155659910291433, -0.07740609347820282, 0.06161094456911087, 0.048727501183748245, 0.13149456679821014, -0.30993911623954773, 0.018297450616955757, -0.09951800853013992, 0.08432556688785553, -0.20421232283115387, -0.21179740130901337, 0.061766207218170166, -0.2415047138929367, -0.00405345531180501, 0.055267851799726486, -0.0295473150908947, 0.005733528174459934, -0.21895051002502441, 0.0968242734670639, 0.12332077324390411, 0.35244715213775635, -0.10722726583480835, -0.07955452054738998, 0.02089017815887928, 0.1058918833732605, 0.04896574839949608, 0.16481587290763855, -0.14547383785247803, -0.08197151124477386, 0.008454326540231705, -0.020278234034776688, 0.08511405438184738, 0.14391615986824036, 0.13192936778068542, -0.11804991960525513, -0.12568052113056183, -0.07092877477407455, 0.07485182583332062, 0.2905135452747345, 0.06993437558412552, 0.00962690357118845, -0.150200754404068, -0.1817321479320526, -0.05727294087409973, -0.18863125145435333, 0.19895599782466888, -0.0558282807469368, -0.09102236479520798, 0.13596878945827484, -0.23732328414916992, -0.134469136595726, 0.15908122062683105, 0.27305838465690613, -0.21638670563697815, 0.15942156314849854, -0.24376848340034485, -0.024139564484357834, 0.35112547874450684, 0.10908307880163193, 0.04985427483916283, 0.23629511892795563, -0.04768503084778786, -0.10769893229007721, 0.21762466430664062, -0.01757027395069599, 0.042607538402080536, 0.09323932230472565, -0.10733600705862045, 0.07780687510967255, -0.09440896660089493, 0.10279206931591034, -0.013384736143052578, 0.2577822506427765, 0.10864944010972977, 0.14151205122470856, 0.10256246477365494, -0.2159462571144104, -0.3173012137413025, 0.03943236917257309, -0.2257155030965805, -0.19599534571170807, -0.17675422132015228, -0.049812234938144684, -0.012144888751208782, 0.2796870470046997, 0.09489215165376663, 0.08351925760507584, 0.15705344080924988, 0.11258826404809952, 0.16637273132801056, -0.043266721069812775, -0.3077429234981537, 0.08390317112207413, 0.1207057312130928, -0.026345347985625267, 0.0620042122900486, 0.09210065752267838, 0.06928088515996933, -0.19279621541500092, 0.011854288168251514, -0.24723227322101593, 0.12939846515655518, 0.07565324753522873, 0.07830427587032318, -0.047707103192806244, -0.14070186018943787], [-0.012789756990969181, 0.049698520451784134, -0.11828118562698364, 0.07666134834289551, 0.07780703157186508, -0.02878747135400772, -0.16014759242534637, -0.04740874841809273, -0.028788411989808083, -0.0043908231891691685, 0.13256637752056122, 0.054368432611227036, 0.19935119152069092, -0.15048792958259583, 0.18048840761184692, 0.007600899785757065, -0.16580936312675476, 0.06745165586471558, 0.07877279818058014, -0.17555738985538483, -0.13889901340007782, 0.07167258858680725, 0.09815073013305664, -0.04676384851336479, 0.032094914466142654, 0.05721527710556984, -0.1367557942867279, -0.10156737267971039, 0.11491008847951889, 0.1546841561794281, 0.12273278832435608, 0.1510734111070633, 0.14637203514575958, -0.13693544268608093, -0.014046309515833855, -0.0752691701054573, 0.07976154237985611, -0.09990016371011734, 0.030066579580307007, -0.0499596893787384, 0.05615706741809845, 0.09670786559581757, -0.005370445549488068, -0.0484161414206028, -0.08444442600011826, -0.2067997306585312, -0.07060854882001877, -0.26886945962905884, -0.1035357266664505, -0.03130025044083595, 0.05858621001243591, -0.11995428800582886, 0.010050956159830093, -0.0669681653380394, 0.07925344258546829, -0.05598176643252373, -0.12755800783634186, 0.08156470954418182, 0.12547065317630768, 0.06892166286706924, 0.016229629516601562, -0.11493682116270065, 0.17606090009212494, 0.1715625375509262, -0.15657459199428558, -0.008223375305533409, -0.08385303616523743, -0.030765265226364136, -0.07645060122013092, 0.16206112504005432, -0.01555542927235365, 0.0004080832877662033, -0.013468361459672451, -0.12386269867420197, 0.07607639580965042, 0.1002633273601532, 0.05895143747329712, -0.08984892815351486, 0.07286220043897629, -0.09174776822328568, -0.15318596363067627, 0.1342202126979828, -0.04776637628674507, 0.043768469244241714, -0.006049405783414841, 0.04567662626504898, 0.1391436606645584, 0.2108883559703827, 0.20717579126358032, 0.02542957291007042, 0.03580857440829277, -0.17295797169208527, 0.11577866226434708, -0.14352001249790192, 0.002001540968194604, 0.08744817972183228, 0.0371541865170002, -0.06692773103713989, 0.1498551368713379, -0.0253440011292696, 0.13580407202243805, 0.16472876071929932, -0.09095536917448044, 0.06764035671949387, 0.11687017977237701, 0.11211042106151581, 0.030694369226694107, -0.02585103176534176, -0.17498424649238586, -0.000898226979188621, -0.08122191578149796, 0.05621935427188873, 0.08208279311656952, 0.097087062895298, 0.14902012050151825, -0.10210020840167999, -0.08663665503263474, 0.12556833028793335, 0.10289740562438965, -0.007363013457506895, 0.08273675292730331, 0.10011309385299683, -0.09084121137857437, -0.10222900658845901, 0.1160951480269432, -0.1865379959344864, -0.0425962395966053, 0.07200921326875687], [-0.009528589434921741, 0.05649817734956741, -0.020623698830604553, 0.09551059454679489, -0.13606518507003784, -0.08771596848964691, -0.11690257489681244, -0.06294090300798416, 0.05968555808067322, -0.15997356176376343, 0.06306586414575577, -0.0323919802904129, 0.006204784847795963, -0.02774888463318348, 0.019717814400792122, 0.01660199463367462, -0.010797595605254173, -0.02302519418299198, 0.1636878401041031, -0.05951547995209694, -0.0745132714509964, 0.1290460228919983, 0.20239420235157013, -0.03372675180435181, 0.10493267327547073, -0.027396395802497864, 0.14555978775024414, -0.061038438230752945, -0.11905588209629059, -0.02788102999329567, 0.023469800129532814, -0.008431807160377502, 0.01669495180249214, -0.07134716212749481, -0.0021196564193814993, -0.13274435698986053, 0.21254412829875946, -0.004884016700088978, -0.12984055280685425, -0.12100500613451004, -0.013171755708754063, -0.08787699043750763, -0.1578647494316101, 0.18671815097332, 0.06729822605848312, -0.09801400452852249, 0.23076355457305908, -0.056122250854969025, 0.17966577410697937, 0.13184799253940582, 0.09325922280550003, 0.009800045751035213, -0.11321434378623962, -0.02607494778931141, -0.0686388909816742, 0.09429340064525604, -0.1847086101770401, 0.1648528128862381, 0.18284349143505096, -0.021424412727355957, -0.0776733011007309, 0.11192761361598969, 0.06380476802587509, -0.048123739659786224, 0.1530693769454956, 0.07654422521591187, -0.04288509488105774, -0.19018307328224182, 0.1004161387681961, -0.12619060277938843, -0.07202204316854477, -0.07018949836492538, 0.1563587635755539, -0.04802795499563217, -0.11981447041034698, -0.11434189230203629, -0.003304409561678767, 0.07304692268371582, 0.08046618103981018, -0.12141264975070953, 0.10100891441106796, 0.05008644238114357, -0.050129249691963196, -0.046917401254177094, 0.2306758016347885, 0.13208195567131042, 0.04440281167626381, -0.09748942404985428, 0.0016850864049047232, -0.014840432442724705, 0.2617214620113373, 0.07865766435861588, 0.11575616896152496, -0.1352635622024536, 0.10928252339363098, -0.11792188882827759, -0.1003333181142807, -0.24499008059501648, -0.01621205545961857, -0.18025067448616028, -0.2564355134963989, -0.09028434753417969, 0.10619457066059113, 0.07001081109046936, 0.12864619493484497, 0.05389614403247833, -0.1154666393995285, -0.07887908071279526, -0.0035448959097266197, -0.06786758452653885, -0.07861736416816711, 0.15567411482334137, 0.06674938648939133, 0.07767656445503235, 0.06525374948978424, 0.0558161735534668, 0.0733117163181305, -0.14315979182720184, 0.10657326877117157, -0.10566607862710953, -0.004392766393721104, 0.07099870592355728, 0.01115111168473959, 0.050044283270835876, 0.21749082207679749, -0.02547682262957096, 0.19943493604660034, 0.13287176191806793], [-0.13293452560901642, -0.09572767466306686, 0.03795742243528366, 0.181784525513649, -0.1205131858587265, 0.11653675138950348, -0.07302093505859375, -0.10542993992567062, -0.1295345276594162, 0.10015642642974854, 0.004710957407951355, 0.08314462751150131, -0.029068967327475548, 0.08381009101867676, 0.0349193811416626, -0.08411582559347153, 0.09992179274559021, -0.05130457878112793, -0.006052779499441385, 0.03734041750431061, -0.205091193318367, -0.16049596667289734, 0.027833659201860428, -0.09695996344089508, 0.043504226952791214, -0.08882071077823639, 0.06839342415332794, -0.109584279358387, 0.16506509482860565, -0.07291952520608902, 0.07406990975141525, 0.12764163315296173, 0.13231214880943298, 0.026720941066741943, -0.10727188736200333, 0.06742159277200699, 0.14475612342357635, 0.13011065125465393, -0.1340869516134262, -0.004948480054736137, 0.08703053742647171, 0.1445285528898239, -0.1665019541978836, 0.09463030099868774, 0.012684203684329987, -0.05357123166322708, 0.07984999567270279, 0.02859865315258503, -0.05564189329743385, 0.026460494846105576, 0.06022512540221214, -0.09215637296438217, 0.15000620484352112, 0.04352996498346329, -0.0935579389333725, -0.008934387005865574, -0.10647881776094437, -0.0050851721316576, -0.11491553485393524, -0.14136412739753723, 0.08287886530160904, -0.1626323163509369, 0.05396411940455437, -0.026630770415067673, 0.039772167801856995, 0.08769393712282181, -0.06722806394100189, 0.1725575178861618, 0.16551466286182404, 0.1659817099571228, -0.012044325470924377, -0.07806994020938873, -0.028230231255292892, -0.11194641888141632, 0.056541427969932556, -0.014649434015154839, -0.0654524564743042, 0.017040541395545006, -0.0780312791466713, 0.15006865561008453, 0.06423143297433853, 0.018871881067752838, 0.03457285091280937, 0.16445334255695343, -0.13405241072177887, 0.03052918240427971, -0.04550701752305031, -0.05395203456282616, -0.04348505660891533, 0.12722034752368927, -0.016887959092855453, -0.0953771099448204, 0.18248684704303741, 0.1616116166114807, -0.04431610181927681, -0.10239759832620621, -0.11918538808822632, -0.09596249461174011, -0.0290679968893528, -0.00473408866673708, -0.08261533826589584, 0.07799629122018814, 0.043014027178287506, 0.03656328096985817, -0.06582438945770264, 0.14199183881282806, 0.03594096750020981, 0.06518884748220444, -0.04761728271842003, -0.0001723091263556853, 0.19513386487960815, -0.21926070749759674, 0.10265492647886276, -0.0056100161746144295, -0.16439707577228546, 0.0566478855907917, 0.10760211944580078, 0.14335943758487701, -0.14520126581192017, -0.16355778276920319, -0.04437635838985443, 0.11791326850652695, -0.025317909196019173, 0.03356478735804558, -0.01438929419964552, -0.1272674798965454, 0.05846723914146423, 0.04373425990343094], [-0.23994094133377075, -0.11506529152393341, 0.15915997326374054, 0.051063213497400284, 0.13776777684688568, -0.07943583279848099, -0.02607397548854351, 0.16509582102298737, 0.12866076827049255, 0.09338885545730591, 0.027925871312618256, 0.010576223023235798, -0.04460904002189636, -0.0800381600856781, -0.060036029666662216, -0.003849240718409419, -0.025579925626516342, 0.014703085646033287, 0.052027273923158646, 0.035980235785245895, 0.017714453861117363, -0.050244200974702835, 0.0821978822350502, 0.14841172099113464, 0.1178193986415863, -0.024813253432512283, -0.09595417976379395, 0.12922793626785278, 0.14230352640151978, 0.06871669739484787, 0.036317650228738785, 0.06252392381429672, -0.011559686623513699, 0.10023240745067596, -0.11534897238016129, 0.2513728141784668, 0.08911300450563431, -0.031353119760751724, 0.1529565453529358, -0.06672125309705734, 0.06960548460483551, 0.005362854339182377, 0.05785488709807396, 0.15898944437503815, 0.11149503290653229, 0.06610170751810074, -0.09652562439441681, 0.22725340723991394, -0.06515951454639435, 0.02792206034064293, 0.048759255558252335, -0.13616731762886047, 0.19841009378433228, 0.1110500618815422, 0.02499312534928322, 0.12761333584785461, -0.030208727344870567, -0.05098934844136238, -0.15613456070423126, 0.20336034893989563, -0.05566507205367088, -0.07950271666049957, -0.08624701201915741, 0.12083472311496735, 0.001188736641779542, -0.05678023397922516, 0.18091817200183868, 0.0077328551560640335, 0.12012889981269836, -0.06364604085683823, 0.15725035965442657, -0.034599531441926956, -0.15204793214797974, -0.026400184258818626, -0.09865444898605347, 0.05940849334001541, 0.005074614658951759, 0.1313159167766571, 0.011976921930909157, -0.043651968240737915, 0.050955336540937424, 0.022724557667970657, -0.15368478000164032, -0.12911412119865417, -0.1351090371608734, -0.061857134103775024, -0.06039244681596756, 0.10481508821249008, 0.04261033609509468, -0.07441678643226624, -0.1441652476787567, -0.008193053305149078, -0.03807235136628151, 0.08276790380477905, -0.19091928005218506, 0.019825702533125877, -0.06378225237131119, 0.010140553116798401, -0.10463441163301468, 0.050340306013822556, 0.1271592080593109, -0.07698337733745575, 0.07792896032333374, -0.0027466106694191694, -0.0024459981359541416, -0.10689155012369156, 0.08150738477706909, -0.0746334046125412, -0.1344182789325714, 0.03434932604432106, -0.043006449937820435, -0.08513038605451584, -0.0646088495850563, -0.08880758285522461, 0.12321598827838898, 0.00022914419241715223, 0.13992537558078766, -0.029678063467144966, 0.038535092025995255, 0.16688008606433868, -0.05647703632712364, -0.09379689395427704, 0.09524300694465637, -0.0025383278261870146, -0.07380308955907822, 0.07697058469057083, 0.03943868726491928, -0.06293339282274246], [-0.1463560163974762, -0.03222089633345604, 0.13503149151802063, 0.16835641860961914, 0.23162630200386047, -0.10318400710821152, -0.16646327078342438, 0.06455964595079422, -0.05195718631148338, 0.16715680062770844, 0.32416605949401855, 0.13882212340831757, 0.07189522683620453, 0.03350268676877022, -0.07776027917861938, 0.14123937487602234, -0.07159007340669632, 0.00940046738833189, 0.026691293343901634, 0.08273719251155853, 0.09335742145776749, -0.1851152628660202, -0.07893750071525574, -0.315899133682251, -0.055534496903419495, 0.057541508227586746, -0.0061687505804002285, 0.12284993380308151, -0.09093345701694489, 0.07880658656358719, -0.03755622357130051, -0.0939103215932846, 0.022165492177009583, -0.01365551445633173, 0.30746185779571533, -0.086913101375103, 0.04257843643426895, -0.17709970474243164, -0.4244486391544342, -0.18641002476215363, 0.0904436782002449, 0.19950002431869507, -0.25886642932891846, 0.22064657509326935, 0.117575503885746, -0.08364581316709518, 0.04765758290886879, 0.002691533649340272, 0.06072069704532623, -0.21240629255771637, 0.1233450397849083, 0.049203913658857346, 0.17841827869415283, -0.14824403822422028, -0.16586866974830627, 0.12788216769695282, -0.16787505149841309, -0.08314729481935501, 0.2694385349750519, -0.05750472471117973, -0.03671344369649887, -0.1513299196958542, -0.023546136915683746, 0.21244004368782043, -0.1226060763001442, -0.2756940424442291, -0.07364033907651901, -0.20492209494113922, 0.15000727772712708, -0.08538724482059479, 0.17443357408046722, -0.23765093088150024, 0.3083623945713043, -0.3260394334793091, 0.09740573167800903, 0.08933818340301514, -0.2735902667045593, 0.03872797638177872, -0.2342887669801712, -0.30361253023147583, -0.4627108573913574, 0.10556856542825699, -0.1509951800107956, -0.06697592884302139, 0.3390219807624817, 0.07763922959566116, -0.04127904027700424, 0.15521830320358276, -0.18332237005233765, 0.06802979111671448, -0.2862345576286316, 0.21781401336193085, 0.11604438722133636, 0.13862784206867218, 0.21750867366790771, 0.16525626182556152, -0.07298726588487625, 0.05462963506579399, 0.13507065176963806, -0.07347247004508972, -0.06142934039235115, 0.03812010586261749, 0.08004060387611389, 0.3161977529525757, -0.06278565526008606, 0.01563962548971176, -0.27046629786491394, -0.1335938572883606, -0.1962292641401291, 0.3281901776790619, -0.061739206314086914, 0.2720052897930145, 0.0872948169708252, 0.21441176533699036, 0.1591438353061676, 0.0908711701631546, -0.09261100739240646, 0.23947274684906006, -0.13942807912826538, 0.04885724559426308, 0.30909326672554016, 0.22382426261901855, -0.1752401739358902, -0.12189721316099167, -0.1745460480451584, 0.1524924337863922, 0.027638012543320656, 0.024324659258127213], [0.043572161346673965, -0.03291093930602074, -0.06556631624698639, -0.08650942146778107, -0.1373363733291626, -0.1344502717256546, -0.20076040923595428, -0.08804288506507874, 0.025226665660738945, 0.12712381780147552, -0.13733521103858948, 0.02249974012374878, 0.1662200391292572, 0.06453905254602432, -0.04999581351876259, 0.15128624439239502, -0.1491153985261917, 0.07945647090673447, -0.03207166865468025, -0.06448928266763687, 0.14301235973834991, 0.06763169169425964, 0.18367089331150055, 0.19193102419376373, 0.04514887183904648, -0.07885633409023285, 0.0002518395776860416, 0.03649410232901573, 0.16166068613529205, 0.12635795772075653, -0.019014796242117882, -0.140780508518219, 0.1324976682662964, 0.10215964168310165, -0.1546199768781662, -0.09216581284999847, -0.1625172197818756, -0.036408960819244385, 0.1540241688489914, -0.15883482992649078, 0.22101990878582, 0.046866074204444885, -0.15975826978683472, -0.22302362322807312, -0.08733406662940979, 0.06284867227077484, 0.07781508564949036, -0.12000083178281784, -0.2179669886827469, 0.04516953229904175, 0.027327775955200195, 0.033545222133398056, -0.06614398211240768, 0.06848812848329544, 0.10946362465620041, 0.2082853615283966, 0.03193408250808716, -0.09247314184904099, -0.00991068035364151, 0.07713141292333603, -0.08650891482830048, 0.06993778049945831, -0.12876442074775696, -0.02363576367497444, -0.05223822221159935, 0.029938897117972374, 0.1731535941362381, 0.04015875607728958, -0.019691085442900658, -0.1707374006509781, 0.04859031364321709, 0.08497938513755798, -0.071245476603508, -0.13316357135772705, 0.1509561836719513, -0.06204422935843468, -0.07329092174768448, 0.023346606642007828, -0.14830195903778076, 0.031432200223207474, -0.09194039553403854, -0.15253911912441254, -0.017541304230690002, -0.005946604069322348, -0.02313852123916149, -0.12097117304801941, -0.006556284613907337, -0.09267954528331757, 0.12785272300243378, 0.28904008865356445, 0.15515819191932678, -0.12335753440856934, 0.20796412229537964, 0.10472902655601501, -0.06119877099990845, 0.00012833975779358298, -0.10956349223852158, -0.08844178169965744, -0.13714814186096191, 0.005255557596683502, 0.188213512301445, -0.029517631977796555, 0.19448229670524597, -0.013863630592823029, 0.18566641211509705, -0.1396922916173935, -0.06318406760692596, 0.1171746701002121, -0.22428275644779205, -0.05430350825190544, 0.055106889456510544, -0.06911096721887589, 0.02415243163704872, -0.004390127025544643, 0.2385071963071823, -0.16801901161670685, -0.09587591141462326, 0.09013225138187408, 0.04131843522191048, 0.03830328583717346, 0.016687603667378426, 0.09244920313358307, -0.02705855667591095, 0.12585632503032684, 0.025727665051817894, 0.06303927302360535, 0.08478913456201553, -0.07075098156929016], [0.07662520557641983, -0.19862791895866394, 0.036803167313337326, -0.19298498332500458, -0.03656119108200073, 0.3317195177078247, 0.09418992698192596, 0.1488521546125412, 0.01643485389649868, 0.010467929765582085, -0.14754945039749146, -0.23889170587062836, -0.2506926655769348, -0.04530913010239601, -0.14721687138080597, 0.14475570619106293, 0.07243691384792328, -0.2139565795660019, -0.24062369763851166, 0.05181349813938141, -0.19440078735351562, 0.08740046620368958, 0.13047446310520172, -0.06587561219930649, 0.16072167456150055, -0.05582612752914429, -0.14922000467777252, 0.0794994905591011, -0.08127596974372864, -0.061651263386011124, 0.05606132000684738, 0.2987535893917084, 0.21211829781532288, 0.0501835010945797, -0.17867545783519745, -0.08544404059648514, -0.11866220086812973, -0.20721235871315002, -0.1950380653142929, 0.006584966089576483, -0.21639302372932434, -0.16734173893928528, -0.07486453652381897, 0.09523143619298935, -0.13191993534564972, -0.20106303691864014, -0.22577829658985138, -0.10200648009777069, -0.0348920077085495, -0.046957943588495255, 0.018418313935399055, 0.05939328297972679, 0.044325850903987885, -0.045948538929224014, -0.13707774877548218, -0.19451487064361572, -0.06425503641366959, -0.0927361249923706, 0.08145871013402939, -0.13867512345314026, 0.17231406271457672, -0.04371099919080734, -0.2177363634109497, -0.25588762760162354, 0.01735292747616768, -0.03606225177645683, 0.06404801458120346, -0.010790043510496616, 0.1422099620103836, -0.07643012702465057, -0.2041081041097641, -0.05751143395900726, 0.3251096308231354, 0.13761739432811737, -0.0419306717813015, 0.08689132332801819, -0.04890735447406769, -0.055079568177461624, 0.2739771008491516, -0.20369622111320496, -0.039523616433143616, -0.0865660235285759, -0.01878434419631958, 0.006573248188942671, 0.12589049339294434, 0.11891543120145798, -0.03088088147342205, -0.23605622351169586, 0.17367365956306458, 0.19537171721458435, 0.06856859475374222, -0.16705447435379028, 0.2619852125644684, 0.18281866610050201, -0.08209896087646484, -0.1374724954366684, -0.05252597853541374, 0.02989461086690426, -0.14801424741744995, -0.3055664896965027, 0.1441638022661209, -0.10507088154554367, -0.047182027250528336, -0.06051923334598541, -0.1821337193250656, -0.16697926819324493, 0.164658322930336, 0.13369327783584595, 0.0874805822968483, 0.013421908020973206, 0.06521908938884735, 0.0798141285777092, 0.10704802721738815, 0.10778921842575073, 0.07138463109731674, -0.1350756734609604, -0.2616152763366699, 0.11292842775583267, -0.009261689148843288, 0.05405711382627487, -0.1041947454214096, 0.08228560537099838, 0.0057633258402347565, 0.19382181763648987, 0.05116446316242218, -0.03843757137656212, -0.0023824688978493214, 0.01822654902935028], [0.06552823632955551, -0.055904991924762726, 0.003524929052218795, -0.07326216250658035, -0.0027028443291783333, -0.06607160717248917, -0.05891834571957588, 0.14608144760131836, 0.11929298937320709, -0.08273614197969437, 0.06022098287940025, 0.014576105400919914, -0.14630699157714844, -0.027338186278939247, -0.16221892833709717, 0.005427616648375988, -0.17722506821155548, -0.015283620916306973, -0.14595890045166016, 0.009112373925745487, 0.06783514469861984, 0.10236989706754684, -0.017157413065433502, -0.11740898340940475, -0.03503664955496788, 0.1303962767124176, 0.07642147690057755, -0.038168348371982574, 0.043105605989694595, -0.10393627732992172, 0.05547496676445007, -0.022699672728776932, 0.08856386691331863, 0.016762690618634224, -0.12198565155267715, 0.1576164960861206, 0.14814473688602448, 0.06369128823280334, -0.04709538444876671, 0.016658218577504158, -0.19520314037799835, -0.11243098974227905, 0.09891125559806824, -0.16363082826137543, 0.007576798554509878, -0.01373195368796587, 0.07776152342557907, 0.007491573691368103, -0.1353251188993454, -0.09516523778438568, 0.09551890194416046, -0.1417953222990036, 0.0951206311583519, 0.12981842458248138, -0.02254071645438671, 0.034065984189510345, -0.02503233030438423, 0.006134853232651949, 0.08791166543960571, 0.02282840572297573, -0.06335368007421494, -0.07590476423501968, 0.0032530121970921755, -0.06706757098436356, -0.0651249960064888, -0.14908862113952637, -0.004500280600041151, -0.04190080240368843, -0.10887092351913452, -0.03596220538020134, 0.0020569395273923874, 0.10866529494524002, 0.15022870898246765, -0.04821118712425232, -0.17724165320396423, 0.12283272296190262, -0.09962129592895508, -0.10082380473613739, -0.03963257744908333, -0.1528218388557434, -0.12610995769500732, 0.024274298921227455, -0.010621810331940651, 0.05383630469441414, 0.10779295116662979, -0.17525391280651093, 0.15395216643810272, -0.0010263206204399467, 0.07670527696609497, -0.07949940115213394, 0.1755170077085495, 0.20835557579994202, -0.04830243065953255, 0.08464780449867249, -0.12230973690748215, -0.1231941506266594, 0.04063264653086662, 0.08413723111152649, 0.09415268152952194, 0.20320869982242584, -0.0030906510073691607, -0.12824472784996033, -0.020102398470044136, -0.07369397580623627, -0.14596456289291382, 0.16617266833782196, 0.02372826263308525, 0.12324927002191544, 0.0957569107413292, -0.1458282321691513, 0.034802958369255066, -0.18221858143806458, -0.01663849502801895, -0.10977841913700104, -0.10263270139694214, 0.03541737422347069, -0.07691291719675064, -0.05373504385352135, -0.04410303756594658, 0.05947291851043701, -0.15103119611740112, 0.044559769332408905, 0.0927375927567482, 0.12395375967025757, -0.1097533106803894, -0.10036667436361313, -0.057389989495277405, 0.11150585114955902], [0.1646881103515625, -0.16239550709724426, 0.12394911050796509, -0.07124533504247665, 0.06876475363969803, -0.13994741439819336, -0.08532103151082993, 0.09982214123010635, -0.10073751956224442, 0.14552712440490723, -0.06815700232982635, 0.005481003317981958, -0.3709700107574463, -0.19074061512947083, 0.18499290943145752, -0.27617910504341125, 0.2831243574619293, 0.3165885806083679, -0.16714948415756226, 0.2276710420846939, -0.07447206974029541, -0.05354158207774162, -0.004154338501393795, -0.22159631550312042, 0.32776716351509094, 0.23587998747825623, -0.016895845532417297, -0.09760190546512604, 0.08090727776288986, 0.163137286901474, -0.1476142406463623, -0.2709366977214813, -0.019663000479340553, -0.13647489249706268, 0.1197197213768959, -0.24534407258033752, 0.11733505874872208, -0.07635901123285294, -0.046114008873701096, -0.3312188684940338, 0.21228264272212982, -0.24227099120616913, -0.05224159359931946, 0.10202749818563461, 0.36787867546081543, -0.06319738924503326, -0.17033542692661285, -0.001142019173130393, 0.21636618673801422, -0.3761080503463745, -0.17515921592712402, -0.09240948408842087, 0.21341969072818756, 0.17429156601428986, 0.009792453609406948, -0.16929635405540466, 0.237924262881279, 0.21531446278095245, -0.21798153221607208, -0.04691747575998306, -0.1271563470363617, 0.3194490671157837, -0.07310619205236435, -0.27180805802345276, 0.15285111963748932, -0.05180846527218819, 0.1158234253525734, -0.1050039604306221, 0.15583382546901703, 0.0005157263949513435, -0.15714287757873535, 0.17995218932628632, 0.005059279967099428, -0.01581898145377636, -0.12335643172264099, 0.3651425540447235, 0.23199814558029175, 0.3049940764904022, 0.24525313079357147, 0.029346810653805733, -0.2204848676919937, 0.24801594018936157, 0.14543205499649048, -0.26401814818382263, 0.2144308090209961, -0.08911072462797165, 0.13880160450935364, -0.1493782103061676, 0.1542942374944687, -0.04180515930056572, 0.11667294055223465, -0.11589348316192627, 0.2030910849571228, 0.10833306610584259, 0.11211368441581726, 0.026465274393558502, 0.2590619921684265, 0.10123372822999954, -0.2505195140838623, -0.058806583285331726, -0.013412206433713436, 0.08756030350923538, -0.07993155717849731, -0.2530280351638794, -0.4030146300792694, -0.011404894292354584, -0.13547994196414948, -0.3376861810684204, 0.3749895989894867, 0.4283383786678314, -0.09589125216007233, -0.06531088799238205, -0.3158811628818512, 0.1711585521697998, 0.14130844175815582, 0.08049725741147995, 0.12884990870952606, 0.24027879536151886, 0.17154937982559204, -0.08842054009437561, -0.07810123264789581, 0.13385319709777832, -0.030171219259500504, -0.36583733558654785, -0.016795041039586067, 0.053887739777565, 0.22047877311706543, -0.042789917439222336], [-0.05216779559850693, 0.012007481418550014, 0.02932147867977619, -0.1102239191532135, -0.07922175526618958, -0.017619572579860687, -0.03403455764055252, -0.07390341907739639, -0.15280307829380035, -0.15049715340137482, -0.24255354702472687, -0.20806418359279633, -0.30041325092315674, -0.0631873682141304, -0.025671320036053658, -0.14587189257144928, -0.18834209442138672, -0.18672090768814087, -0.09214264899492264, -0.29616233706474304, -0.161373108625412, -0.12809965014457703, -0.136985182762146, -0.04847967252135277, 0.1744031459093094, 0.17351843416690826, -0.08388848602771759, -0.26373201608657837, 0.08945611119270325, -0.043750979006290436, 0.14902524650096893, 0.07044712454080582, -0.0950586125254631, -0.2072274535894394, -0.10424313694238663, -0.03662692382931709, 0.13614422082901, -0.12112012505531311, 0.13945145905017853, 0.0058045769110322, -0.03578859940171242, -0.26398220658302307, 0.0057004233822226524, 0.1461898386478424, 0.3352629542350769, -0.10447459667921066, -0.1600421965122223, 0.04877343028783798, 0.12666068971157074, -0.04714219272136688, 0.23790384829044342, -0.25600337982177734, -0.050055332481861115, -0.02864392288029194, -0.10948944091796875, -0.15478608012199402, -0.06483793258666992, 0.09354081749916077, -0.16295629739761353, -0.14590904116630554, 0.16416876018047333, 0.04244829714298248, -0.012944153510034084, 0.019132591784000397, 0.09157036989927292, 0.2514095604419708, 0.07347022742033005, 0.09594863653182983, -0.17582537233829498, 0.1269906610250473, 0.055529169738292694, 0.04735109955072403, -0.13888178765773773, 0.1803165078163147, 0.24810616672039032, 0.0890568345785141, 0.16526450216770172, -0.10022539645433426, 0.10033448040485382, -0.03898833319544792, 0.027844222262501717, 0.2651847004890442, 0.058371640741825104, 0.02322041243314743, -0.010852716863155365, 0.30174535512924194, -0.09865346550941467, -0.16990898549556732, 0.3094841241836548, 0.12907786667346954, -0.0517624095082283, -0.08210990577936172, 0.07747559994459152, 0.09168411791324615, -0.08201165497303009, 0.08245942741632462, 0.2697448432445526, -0.06204592064023018, -0.2175467312335968, -0.2062414288520813, 0.24916137754917145, -0.19343426823616028, 0.13642549514770508, -0.2089359164237976, -0.031956445425748825, -0.09567891061306, -0.16314637660980225, 0.14662152528762817, -0.08033420890569687, 0.13025836646556854, -0.07094144076108932, -0.09097284823656082, 0.05497569590806961, 0.18145836889743805, -0.20048333704471588, -0.1458539068698883, -0.2139492928981781, 0.14806389808654785, 0.024145619943737984, 0.12403030693531036, -0.15844367444515228, 0.029185058549046516, -0.10477041453123093, -0.01096367184072733, 0.019704049453139305, 0.12118998914957047, 0.04616513103246689, 0.0448177270591259], [0.1670835167169571, 0.13812410831451416, -0.08686184138059616, 0.023280607536435127, -0.04822424426674843, -0.04986351355910301, -0.022231772541999817, 0.14633898437023163, -0.12849406898021698, -0.24250265955924988, 0.11281566321849823, 0.00580648984760046, -0.02168780006468296, -0.00943959690630436, -0.08757006376981735, -0.04169856384396553, -0.09631143510341644, 0.25356701016426086, -0.09821946173906326, -0.09072080254554749, -0.0046048532240092754, 0.05216342583298683, -0.11252693086862564, 0.16568729281425476, -0.09876220673322678, 0.05178296938538551, -0.10371606051921844, 0.08199592679738998, 0.015394474379718304, -0.03283087909221649, -0.09844478964805603, 0.028749529272317886, -0.10343568027019501, 0.08429382741451263, -0.013396511785686016, -0.09348546713590622, 0.0664995014667511, -0.18138505518436432, 0.055447809398174286, 0.15727642178535461, -0.08505155891180038, -0.09424302726984024, -0.10049697011709213, 0.06714314967393875, 0.06654899567365646, 0.12053560465574265, -0.08600424230098724, 0.019174115732312202, 0.05944926291704178, -0.0849665105342865, -0.051290709525346756, -0.03332237899303436, -0.07514802366495132, 0.03630188852548599, -0.05181628838181496, -0.1390220671892166, -0.05285308137536049, -0.0901397168636322, 0.10179587453603745, 0.07323002070188522, -0.1644422560930252, -0.069163478910923, -0.038071319460868835, 0.092539481818676, -0.13405416905879974, -0.07124470919370651, 0.1084647998213768, 0.2150735706090927, 0.01840442605316639, 0.13039658963680267, -0.11952805519104004, 0.08657751232385635, 0.09951778501272202, 0.11325383186340332, -0.18104735016822815, -0.05640390142798424, 0.14177942276000977, -0.038436274975538254, 0.13325007259845734, 0.10954885184764862, 0.04591509327292442, -0.05805680900812149, -0.0363161675632, 0.015934092923998833, -0.042332082986831665, 0.09102662652730942, 0.0778716579079628, -0.006410948466509581, 0.1101163923740387, -0.02483448013663292, -0.05818114057183266, -0.14699773490428925, -0.05287162587046623, -0.06473804265260696, -0.20084670186042786, -0.1206534132361412, 0.12662373483181, 0.03983699157834053, 0.048510074615478516, 0.07821419090032578, 0.03640846163034439, 0.17075912654399872, 0.03985349461436272, -0.07080603390932083, -0.09616143256425858, 0.040769923478364944, -0.03521158918738365, 0.11956391483545303, -0.0361182726919651, 0.19537974894046783, -0.026166753843426704, -0.17203253507614136, -0.0018992533441632986, -0.20399163663387299, -0.04042525216937065, 0.07865600287914276, 0.02668650820851326, 0.039390306919813156, 0.12246721982955933, 0.156069815158844, 0.024685708805918694, 0.013802859000861645, 0.13598155975341797, -0.0461471788585186, -0.04842311143875122, 0.1964561641216278, 0.042702458798885345, -0.012985081411898136], [0.10062894225120544, 0.051699984818696976, -0.05941789597272873, 0.08668333292007446, -0.11153954267501831, -0.09173470735549927, 0.340402752161026, -0.05341857671737671, 0.08998069912195206, -0.3604148328304291, 0.10634619742631912, 0.2580321133136749, -0.08299822360277176, 0.08138390630483627, 0.05405405908823013, 0.1424509435892105, 0.12812753021717072, 0.17815539240837097, 0.18115922808647156, -0.23919528722763062, -0.17363420128822327, 0.3081895709037781, 0.16508592665195465, -0.3952680230140686, 0.023355035111308098, 0.08787765353918076, -0.2810557186603546, -0.19091656804084778, 0.01155433151870966, -0.14649738371372223, -0.13120102882385254, -0.10728178918361664, 0.09646886587142944, 0.21093255281448364, 0.1420765370130539, -0.12619870901107788, -0.03401697799563408, -0.021323543041944504, -0.40779927372932434, 0.19610901176929474, -0.07312900573015213, -0.12126944214105606, -0.012166561558842659, 0.018305320292711258, 0.08760524541139603, -0.05113161355257034, -0.10048394650220871, -0.04796816036105156, -0.08554708957672119, 0.16654515266418457, -0.15713581442832947, -0.24903276562690735, -0.018676448613405228, -0.10990676283836365, -0.3132365345954895, -0.4671986997127533, -0.35961705446243286, 0.3665960133075714, 0.1315256506204605, 0.14711755514144897, -0.18452344834804535, 0.05353156477212906, -0.06489377468824387, -0.06629146635532379, -0.07212458550930023, 0.03072342462837696, 0.14889982342720032, 0.14566491544246674, -0.22891341149806976, -0.22219140827655792, -0.05136808753013611, 0.11600159853696823, 0.15492044389247894, 0.2031162530183792, 0.004704599268734455, 0.40694305300712585, 0.3828487992286682, 0.22324591875076294, 0.29465460777282715, -0.17499443888664246, 0.1703832596540451, 0.2118302434682846, 0.09324094653129578, 0.016963183879852295, 0.18905940651893616, 0.1608380824327469, -0.14689910411834717, -0.060971423983573914, -0.27311596274375916, 0.1260976642370224, -0.07691917568445206, -0.06313080340623856, 0.019773388281464577, -0.19833123683929443, -0.27201047539711, 0.25985726714134216, -0.08101380616426468, -0.2533562183380127, -0.23733484745025635, 0.10507388412952423, 0.050955880433321, 0.23058223724365234, 0.19254261255264282, 0.2473200261592865, -0.24919135868549347, 0.025016112253069878, -0.05190425366163254, -0.03622957319021225, 0.3265626132488251, 0.048147186636924744, 0.01838945969939232, -0.30403074622154236, -0.22108498215675354, -0.12006795406341553, -0.03462748974561691, 0.0806407481431961, -0.15023475885391235, 0.0787140354514122, -0.016003014519810677, -0.04581122472882271, 0.03765733540058136, -0.13864538073539734, -0.021593701094388962, 0.0327894501388073, 0.2158898115158081, 0.39643484354019165, -0.14366795122623444, 0.08624979853630066], [0.019510548561811447, -0.26200756430625916, -0.08489589393138885, 0.13641870021820068, 0.14078927040100098, 0.1456565111875534, -0.004047168884426355, 0.22224920988082886, -0.2062513828277588, -0.04844113811850548, 0.10413510352373123, -0.10735432058572769, 0.08074653148651123, -0.07710442692041397, 0.1162395104765892, -0.0486450269818306, -0.09804853051900864, 0.020288685336709023, 0.28817006945610046, -0.11012230068445206, 0.14241571724414825, 0.14936979115009308, -0.3072326183319092, -0.05033021420240402, -0.04080408066511154, -0.09712958335876465, 0.25956910848617554, -0.12254977971315384, 0.04196791723370552, 0.18606281280517578, 0.18575885891914368, 0.05230288580060005, -0.0015161167830228806, -0.08897408843040466, 0.14534276723861694, 0.03957748040556908, -0.06774727255105972, -0.11276067048311234, 0.2201329618692398, -0.2232694923877716, 0.08315666764974594, 0.2792879641056061, 0.010748837143182755, -0.10229583829641342, -0.13066419959068298, -0.08405070006847382, 0.07882822304964066, -0.028871359303593636, -0.2040347158908844, -0.1357010006904602, 0.15206779539585114, -0.09852038323879242, 0.00997720006853342, -0.25503429770469666, -0.23978577554225922, 0.23696205019950867, 0.4081745743751526, 0.21849943697452545, 0.057469211518764496, 0.15156927704811096, 0.00473342789337039, -0.022972257807850838, 0.06651311367750168, -0.28431954979896545, -0.2696879506111145, -0.00929990317672491, -0.16259761154651642, 0.19440728425979614, -0.1546659916639328, -0.16344887018203735, 0.12326793372631073, 0.020486395806074142, -0.0338253453373909, 0.011563142761588097, 0.03235216811299324, 0.06335299462080002, -0.015800848603248596, -0.12062136083841324, 0.025267252698540688, 0.13299043476581573, -0.047531310468912125, -0.1886315941810608, 0.16368365287780762, 0.013639220036566257, 0.05979771167039871, -0.010938983410596848, 0.1570325344800949, -0.09990891069173813, 0.08899971842765808, -0.19438225030899048, 0.0741114616394043, -0.24548088014125824, -0.03723262995481491, 0.21328705549240112, 0.026612112298607826, -0.09153198450803757, 0.03588060662150383, 0.055123381316661835, 0.2626243233680725, 0.11606884747743607, -0.1034376323223114, -0.3129960298538208, -0.0914958044886589, -0.24279265105724335, -0.014241917990148067, -0.03718813136219978, -0.09801867604255676, -0.023011470213532448, -0.2550167143344879, 0.1078430712223053, 0.30455833673477173, -0.1062217652797699, 0.17747212946414948, -0.09012819826602936, -0.0058076875284314156, -0.05827996879816055, 0.09537029266357422, -0.16375166177749634, 0.07109113037586212, -0.053483299911022186, -0.1592361181974411, 0.14690783619880676, -0.16246429085731506, 0.03032325953245163, -0.07827470451593399, -0.026873189955949783, -0.18729820847511292, -0.05677995830774307], [0.01034962385892868, 0.032338306307792664, 0.03781463950872421, 0.01757817715406418, -0.032664790749549866, -0.09231165051460266, -0.2112397849559784, 0.08871541172266006, -0.05618075653910637, -0.08830282092094421, 0.013060422614216805, -0.07531552761793137, -0.017663098871707916, 0.1473904550075531, 0.07824140042066574, 0.06071808934211731, 0.015624631196260452, 0.10420861840248108, -0.214402437210083, -0.13833169639110565, 0.1977270394563675, -0.06418631970882416, -0.0661669671535492, -0.13709069788455963, 0.1272904872894287, -0.129627987742424, -0.09715451300144196, 0.06773888319730759, -0.005359819158911705, 0.11423047631978989, -0.05824772268533707, -0.09930707514286041, -0.035437315702438354, 0.1596594750881195, -0.034345321357250214, 0.02157420851290226, 0.06969835609197617, -0.011707127094268799, 0.03578466176986694, -0.11062401533126831, 0.10774111747741699, 0.04097558930516243, 0.014254484325647354, -0.058492571115493774, 0.039057280868291855, 0.0033529808279126883, 0.16649140417575836, -0.09802553802728653, -0.06444772332906723, -0.08516543358564377, -0.05359051749110222, 0.12075720727443695, 0.05964044854044914, -0.08348630368709564, -0.0023939262609928846, -0.10629667341709137, 0.1373780369758606, -0.08767369389533997, -0.028687825426459312, 0.15425227582454681, -0.04186597093939781, 0.1016310527920723, -0.0237283892929554, -0.05247071012854576, 0.0083884596824646, 0.11522656679153442, -0.05913282558321953, 0.04983873665332794, -0.15817850828170776, 0.11353889852762222, 0.14097903668880463, 0.08690623939037323, 0.11375430971384048, -0.031012384220957756, -0.04906994849443436, 0.049778539687395096, 0.0307364109903574, 0.17424270510673523, 0.007322292309254408, 0.13609591126441956, 0.08093959838151932, 0.0008824085234664381, 0.04160113260149956, 0.021904608234763145, -0.07712067663669586, -0.07379090785980225, 0.03509524464607239, 0.045954518020153046, -0.05779784917831421, -0.09758073836565018, 0.09867054224014282, 0.2078070342540741, -0.09882736951112747, -0.17413246631622314, -0.03218690678477287, 0.1089218482375145, -0.019000932574272156, -0.13641870021820068, 0.1033618226647377, 0.12446986883878708, 0.03262420371174812, -0.06500806659460068, -0.028514418751001358, -0.14633876085281372, -0.00816295761615038, -0.032561998814344406, -0.08113756030797958, 0.0033692882861942053, -0.07655921578407288, 0.05915779247879982, 0.06267079710960388, 0.034595344215631485, -0.08849635720252991, 0.1429329514503479, -0.09542162716388702, 0.11883573234081268, 0.0069822208024561405, 0.17492251098155975, 0.10961085557937622, -0.10306483507156372, 0.030772624537348747, -0.01571207121014595, 0.11826206743717194, 0.09104876220226288, 0.024678127840161324, 0.07921592146158218, 0.015794770792126656, 0.132573664188385], [-0.014819939620792866, 0.03716511279344559, 0.06348170340061188, -0.1457531750202179, -0.026462549343705177, 0.012732917442917824, 0.16790200769901276, 0.0932859405875206, 0.19691188633441925, 0.008964858949184418, -0.08003463596105576, 0.02399212121963501, 0.055822525173425674, -0.0853416919708252, -0.04589531943202019, 0.07732705026865005, 0.01574479602277279, 0.07947684079408646, 0.0004408960521686822, 0.020284036174416542, -0.08973781019449234, -0.018141690641641617, -0.031144943088293076, -0.023437410593032837, -0.11280551552772522, 0.06848936527967453, -0.0518985241651535, 0.16340765357017517, -0.0293043814599514, -0.03269042819738388, 0.003501957282423973, -0.10337520390748978, 0.010862060822546482, 0.012131601572036743, -0.11791355162858963, 0.1312475949525833, 0.08553672581911087, -0.030073214322328568, -0.02273659221827984, -0.19377781450748444, 0.057291239500045776, 0.1573570817708969, -0.08690208941698074, 0.11783318966627121, -0.058397237211465836, 0.04160989075899124, 0.1071462407708168, 0.05959312990307808, -0.025548312813043594, -0.10532880574464798, 0.08868482708930969, -0.10852805525064468, 0.12402520328760147, -0.12437504529953003, 0.027549507096409798, -0.07625085115432739, 0.04648159071803093, -0.03136635571718216, 0.047939855605363846, -0.10223947465419769, -0.09857352077960968, 0.10861213505268097, -0.20264774560928345, 0.07660644501447678, 0.03726589307188988, -0.09020267426967621, 0.10211877524852753, 0.19145125150680542, -0.09100156277418137, -0.10405586659908295, 0.07618516683578491, 0.01650089956820011, 0.09358569234609604, -0.037188418209552765, -0.09716527163982391, -0.09196558594703674, -0.006962343584746122, 0.12077897042036057, 0.03782181814312935, -0.07409608364105225, 0.06366158276796341, -0.19237194955348969, -0.0721985399723053, 0.06363962590694427, 0.003044166136533022, 0.0884239673614502, 0.17352084815502167, 0.20267654955387115, 0.05994103103876114, -0.15757101774215698, -0.2217361032962799, 0.07296217978000641, 0.1490585058927536, -0.025862570852041245, -0.07597122341394424, 0.1023004800081253, 0.14392982423305511, 0.2578858435153961, 0.08710385859012604, 0.020034508779644966, 0.04599933326244354, 0.09308608621358871, 0.06289198249578476, 0.1398330181837082, -0.15691974759101868, -0.13713538646697998, -0.05461752414703369, -0.04370666295289993, -0.1077025830745697, -0.002677683252841234, 0.1044909656047821, 0.003670095233246684, -0.07539615035057068, -0.10682862997055054, -0.10663725435733795, -0.1951848715543747, -0.027401814237236977, -0.014206865802407265, -0.02969110570847988, -0.051416750997304916, 0.1375202238559723, -0.052568644285202026, 0.062332771718502045, -0.18135589361190796, -0.017461374402046204, 0.0596386194229126, -0.06135876104235649, 0.040963321924209595], [-0.10175705701112747, -0.019413189962506294, 0.08466775715351105, -0.028386706486344337, 0.04421203210949898, -0.03587086871266365, -0.015633488073945045, 0.09094715863466263, -0.10150217264890671, -0.16830794513225555, -0.08948622643947601, 0.10635542869567871, 0.14783090353012085, -0.10292379558086395, 0.05913453549146652, 0.09012225270271301, 0.07840736955404282, 0.06422887742519379, -0.19749803841114044, 0.07235974818468094, 0.05645361170172691, 0.12405244261026382, -0.04679486155509949, 0.07460017502307892, -0.10000200569629669, 0.07590630650520325, 0.05398327857255936, -0.08240901678800583, -0.016156090423464775, 0.1559085100889206, 0.10449712723493576, -0.11215206235647202, 0.04736534506082535, -0.08983886986970901, 0.047540538012981415, 0.12420087307691574, 0.07897553592920303, -0.075600765645504, -0.20713214576244354, -0.01586637832224369, -0.021146925166249275, -0.1609586924314499, 0.18649987876415253, -0.14238755404949188, 0.11958245933055878, 0.021547066047787666, 0.0054605924524366856, 0.1314011961221695, 0.015914734452962875, 0.15541382133960724, -0.00766383670270443, -0.025205295532941818, 0.10893431305885315, -0.19185256958007812, -0.08277536183595657, 0.2430429607629776, -0.005454353988170624, -0.1171204149723053, 0.00013824472262058407, -0.026722002774477005, -0.13255402445793152, -0.14249634742736816, 0.0936550572514534, 0.015532982535660267, 0.0515521764755249, 0.09233679622411728, 0.09019923955202103, -0.12175006419420242, -0.12208399921655655, -0.07479575276374817, 0.09601345658302307, 0.12619079649448395, 0.11788821965456009, 0.1171228438615799, -0.009509637951850891, -0.007485410198569298, 0.030835047364234924, 0.06585671007633209, 0.011903238482773304, 0.05358072370290756, 0.15756197273731232, -0.041163697838783264, -0.12607134878635406, 0.011488125659525394, 0.1265404373407364, -0.06046932563185692, -0.11266299337148666, -0.09907227009534836, -0.10214301943778992, -0.041132524609565735, -0.027441062033176422, 0.056550297886133194, 0.05559501796960831, -0.04702629894018173, 0.011601932346820831, 0.06700228154659271, -0.12736573815345764, 0.0847608670592308, -0.01634746789932251, -0.10751940310001373, -0.11425011605024338, -0.035437874495983124, 0.11702462285757065, -0.014968638308346272, -0.02867056056857109, -0.07477762550115585, 0.005582834593951702, -0.1380254626274109, -0.08672566711902618, 0.07244058698415756, 0.1006203293800354, -0.007775797508656979, -0.10180110484361649, 0.06500037014484406, 0.06692560762166977, 0.057202886790037155, -0.06150644272565842, 0.01692044921219349, -0.057505011558532715, -0.09778214246034622, -0.07361548393964767, 0.09759204834699631, -0.09703877568244934, -0.1541614979505539, -0.141905277967453, 0.09443999081850052, 0.0020034555345773697, 0.030138608068227768], [-0.14772750437259674, -0.004524994175881147, -0.039952352643013, 0.09107385575771332, -0.023207787424325943, -0.04484053701162338, 0.15946891903877258, 0.3006032407283783, 0.030047861859202385, 0.06317686289548874, -0.06478261947631836, 0.11920677125453949, 0.17742083966732025, -0.032324764877557755, 0.27679628133773804, 0.3183675706386566, -0.16499893367290497, 0.17728164792060852, 0.1226317286491394, 0.04369526728987694, 0.1574404090642929, 0.1880650520324707, 0.16921548545360565, 0.0467156320810318, 0.14374449849128723, 0.25887417793273926, -0.09453899413347244, 0.17342594265937805, 0.10046951472759247, 0.1197359710931778, 0.08119165152311325, 0.018872693181037903, -0.11670557409524918, 0.05459486320614815, 0.0730760470032692, -0.03226613625884056, -0.13668420910835266, -0.027164053171873093, -0.09078580886125565, -0.24591293931007385, -0.04908504709601402, -0.19292642176151276, -0.25582975149154663, 0.18313343822956085, -0.3247413635253906, -0.16729407012462616, 0.21419665217399597, -0.017630985006690025, -0.012952344492077827, 0.024644609540700912, 0.08442563563585281, -0.13186287879943848, 0.1238514631986618, -0.128302663564682, 0.0008596791885793209, -0.2354685515165329, -0.0050582741387188435, 0.1203203946352005, -0.1482657492160797, 0.14727763831615448, -0.32871687412261963, 0.007599446922540665, -0.21873299777507782, 0.07421127706766129, -0.019157003611326218, 0.1237710639834404, 0.04613816738128662, 0.20318835973739624, -0.19841516017913818, -0.16208402812480927, 0.01329525001347065, -0.13019214570522308, 0.19375430047512054, 0.029752351343631744, -0.29141002893447876, -0.2617802917957306, -0.11477624624967575, 0.037899572402238846, 0.08287660777568817, -0.17534106969833374, 0.1669645458459854, -0.17099186778068542, 0.12032780796289444, -0.0871969535946846, 0.19713351130485535, -0.08353860676288605, -0.310811311006546, 0.0204849261790514, 0.05736623704433441, -0.3257802426815033, 0.09383520483970642, -0.1231164038181305, 0.17583294212818146, 0.12213632464408875, -0.19938421249389648, -0.04334735870361328, -0.3324108421802521, 0.16137246787548065, 0.16290214657783508, 0.0845644474029541, 0.024510497227311134, 0.14912459254264832, 0.17679782211780548, 0.28518784046173096, 0.10948500037193298, 0.1714743822813034, -0.17938151955604553, 0.10974238067865372, 0.12498237192630768, 0.2667959928512573, 0.060376036912202835, -0.07537051290273666, 0.0026304565835744143, -0.08440373092889786, 0.024512391537427902, 0.23752367496490479, 0.10970057547092438, 0.1589004546403885, -0.06876020133495331, 0.1015964075922966, 0.12771372497081757, 0.15520329773426056, -0.16707956790924072, 0.13830946385860443, -0.03764187544584274, -0.049048762768507004, -0.026370730251073837, -0.0022991392761468887], [0.07028522342443466, 0.03838339075446129, -0.5147179961204529, -0.09768649190664291, 0.0013709166087210178, -0.15116114914417267, 0.080620676279068, 0.1441831737756729, -0.0508144348859787, 0.23979388177394867, 0.3252237141132355, 0.18591788411140442, 0.11000021547079086, -0.1932377815246582, -0.26729536056518555, 0.4533902406692505, -0.1485154628753662, 0.1970614194869995, -0.45304328203201294, -0.2637302875518799, -0.19256186485290527, 0.210093691945076, 0.21836256980895996, -0.2103634774684906, 0.33964598178863525, 0.20831920206546783, 0.1135183796286583, 0.04508024826645851, -0.08894893527030945, -0.1512889862060547, 0.03765307366847992, 0.0005838422803208232, 0.07526242733001709, -0.3747510313987732, 0.4625828266143799, -0.2429470717906952, -0.024284740909934044, -0.08152879774570465, -0.10524408519268036, -0.24642504751682281, 0.29180794954299927, -0.07998377829790115, -0.36929255723953247, 0.10554654896259308, -0.40886688232421875, -0.23927313089370728, 0.0038304412737488747, 0.013462010771036148, 0.10381215810775757, 0.07491996884346008, 0.24178120493888855, 0.3059677183628082, 0.09362964332103729, -0.012126924470067024, 0.5585929155349731, -0.08474189043045044, -0.4362542927265167, 0.25542742013931274, -0.571323037147522, -0.18884436786174774, -0.33036622405052185, 0.2269221544265747, -0.2786228060722351, 0.34364059567451477, -0.32132378220558167, 0.08065643906593323, -0.2588566541671753, -0.12017717212438583, -0.22025059163570404, 0.038052674382925034, -0.058689869940280914, -0.2593478262424469, 0.051802925765514374, 0.15323399007320404, -0.013215795159339905, -0.04205140843987465, -0.17420588433742523, 0.044023867696523666, 0.17312295734882355, 0.1166030764579773, -0.27742913365364075, 0.07137982547283173, 0.03920038416981697, 0.10530620068311691, 0.19046464562416077, 0.03719240054488182, 0.08810734003782272, -0.039492346346378326, 0.2175237536430359, -0.3446243703365326, -0.29707348346710205, -0.28289416432380676, 0.07419431954622269, -0.18323838710784912, -0.01137392595410347, 0.2596000134944916, 0.2797648310661316, -0.3507610857486725, -0.1213025376200676, 0.029160166159272194, 0.40432223677635193, 0.3553115725517273, -0.10464948415756226, 0.43786177039146423, -0.2740660309791565, 0.23133477568626404, -0.44259941577911377, -0.3027312457561493, 0.27454838156700134, 0.4412961006164551, 0.38292330503463745, -0.30107375979423523, 0.0025525600649416447, -0.02622881904244423, -0.271928071975708, -0.0607806034386158, 0.19259105622768402, 0.14640648663043976, -0.44514310359954834, 0.22892126441001892, 0.05197351798415184, 0.0479247085750103, -0.11481569707393646, 0.25961193442344666, 0.22512593865394592, -0.1913352757692337, 0.14253488183021545, 0.01247443351894617], [0.02917257882654667, -0.1618809849023819, 0.07387062907218933, 0.09403564780950546, 0.04109955579042435, -0.0825648233294487, 0.2085319459438324, 0.09949047118425369, 0.0081682363525033, -0.01165896188467741, -0.07907994091510773, 0.06343597918748856, 9.845677413977683e-05, -0.08415218442678452, -0.14287824928760529, 0.05316901579499245, 0.05698375031352043, -0.009058632887899876, -0.030125301331281662, 0.01288280077278614, 0.03595384582877159, 0.21997322142124176, 0.11939993500709534, -0.11692053824663162, -0.11294630169868469, -0.11432899534702301, -0.03363167122006416, 0.022100817412137985, 0.06043772026896477, -0.10557925701141357, 0.07162488996982574, 0.028560593724250793, -0.04038221016526222, -0.04163225740194321, 0.19355808198451996, 0.08735037595033646, 0.05813395977020264, 0.09029735624790192, 0.13955727219581604, 0.08794233947992325, -0.10989557951688766, -0.0225082840770483, 0.09896653890609741, -0.049196675419807434, 0.004771999549120665, -0.12782709300518036, -0.17605777084827423, 0.02363651804625988, 0.11193753778934479, 0.014823605306446552, -0.11888527870178223, -0.2092878371477127, 0.09126053005456924, 0.14112260937690735, -0.04202074557542801, -0.059166017919778824, 0.021644502878189087, -0.09579474478960037, 0.04786311835050583, -0.03563733026385307, -0.10695471614599228, -0.14198367297649384, 0.039435822516679764, -0.06325028836727142, -0.02938302606344223, 0.07875887304544449, 0.05194012448191643, 0.14342179894447327, -0.0018260027281939983, 0.025122929364442825, 0.05913497880101204, -0.006393428426235914, -0.007257211022078991, 0.07014072686433792, -0.001915528904646635, -0.020426807925105095, -0.037402838468551636, 0.09320084750652313, -0.2119694948196411, -0.11327621340751648, 0.04358956217765808, 0.12644095718860626, -0.08891738206148148, -0.06953144073486328, -0.022030271589756012, -0.10880152881145477, -0.009603737853467464, -0.038935646414756775, -0.17897681891918182, 0.18895773589611053, -0.10476378351449966, 0.013256915844976902, 0.10882806032896042, -0.0175330713391304, 0.1054539903998375, 0.10834602266550064, 0.1092388853430748, -0.009812232106924057, 0.0930701345205307, 0.05370747298002243, 0.045528315007686615, -0.07686776667833328, -0.11360249668359756, -3.762335836654529e-05, -0.16166795790195465, -0.11155658960342407, 0.09102752059698105, 0.021463604643940926, -0.07138926535844803, 0.09623713046312332, 0.07847680896520615, -0.11188512295484543, 0.08811982721090317, 0.03983272984623909, 0.15036752820014954, 0.08115684986114502, 0.04704219475388527, -0.011164812371134758, 0.04339688643813133, -0.1459706574678421, 0.09234987199306488, -0.07084403187036514, -0.05657027289271355, -0.12347108870744705, -0.07188588380813599, 0.049458373337984085, 0.08985231071710587, -0.15546713769435883], [0.1738983690738678, 0.07256997376680374, -0.07725310325622559, -0.05412501096725464, 0.01902456022799015, 0.020571952685713768, 0.06714776158332825, -0.17056231200695038, -0.13287661969661713, 0.06461845338344574, 0.07848218083381653, -0.09047625213861465, 0.027617445215582848, 0.020211827009916306, 0.08811229467391968, -0.06664880365133286, 0.08004826307296753, 0.00153175403829664, 0.09872577339410782, -0.13990449905395508, -0.017091991379857063, 0.13947750627994537, -0.039214495569467545, 0.1277194619178772, -0.10552175343036652, 0.12276332825422287, 0.0007665273733437061, -0.05395220220088959, 0.13370384275913239, -0.07817637920379639, 0.11823517084121704, 0.18499648571014404, 0.1019909679889679, 0.11843761056661606, 0.01244830247014761, -0.016684990376234055, -0.0028037677984684706, 0.036122385412454605, 0.05392029881477356, -0.034634850919246674, -0.05450845882296562, 0.11235695332288742, 0.15153533220291138, -0.03187210485339165, -0.04925321042537689, 0.13704127073287964, 0.02849249355494976, 0.04148554056882858, 0.06627572327852249, -0.13204523921012878, -0.15788641571998596, -0.1293860375881195, 0.2130269706249237, 0.052160780876874924, -0.12970176339149475, 0.07700666785240173, -0.008475979790091515, -0.10986201465129852, -0.04409067705273628, 0.04751862585544586, 0.11251310259103775, -0.008789890445768833, 0.018576446920633316, -0.0023324652574956417, 0.011843283660709858, 0.25529325008392334, -0.01049221120774746, 0.13191485404968262, 0.04848889261484146, -0.06988480687141418, 0.17962546646595, 0.11264383047819138, 0.12167908996343613, -0.1637612283229828, -0.19679057598114014, -0.0635467916727066, -0.018384989351034164, 0.02121623605489731, 0.10103774815797806, 0.05207341909408569, 0.04886234551668167, -0.10037484765052795, 0.05319848656654358, -0.07552453130483627, -0.03958477824926376, 0.08808724582195282, 0.07412493973970413, 0.01643959805369377, -0.18386249244213104, 0.04461229592561722, -0.07639928162097931, 0.04875105991959572, 0.033638227730989456, 0.07682705670595169, 0.19554905593395233, 0.029842795804142952, -0.013034973293542862, -0.019102130085229874, -0.13456237316131592, 0.005700095556676388, 0.1790495663881302, 0.022109219804406166, 0.00040974520379677415, 0.03379592299461365, -0.09633894264698029, 0.017121171578764915, 0.03687893971800804, 0.04105369374155998, -0.043885234743356705, 0.028807595372200012, -0.00829264149069786, -0.12070354074239731, -0.01709636300802231, -0.05992501974105835, -0.007081585004925728, -0.05623508617281914, -0.15344089269638062, -0.09037850052118301, 0.12641221284866333, 0.08994244039058685, 0.17901162803173065, -0.1626153290271759, -0.02860247530043125, -0.10974667221307755, -0.027798276394605637, -0.10824388265609741, -0.05578510835766792, -0.10956475138664246], [0.15942667424678802, -0.09717148542404175, -0.1998186856508255, 0.035030294209718704, 0.010697421617805958, 0.06754329800605774, -0.02847057208418846, 0.14289698004722595, 0.12300337105989456, -0.16704659163951874, -0.22213570773601532, 0.035295985639095306, -0.12945881485939026, -0.11857046186923981, 0.14624617993831635, 0.07969162613153458, 0.012726047076284885, -0.04295177385210991, 0.00857561081647873, 0.1110101193189621, 0.10117454081773758, -0.029793743044137955, -0.024207482114434242, 0.11415447294712067, 0.0322396382689476, -0.07867944240570068, 0.006095947697758675, -0.11342360079288483, -0.13246534764766693, 0.05844442918896675, -0.05127177760004997, 0.0797857791185379, 0.11390983313322067, -0.04422028735280037, -0.0249452143907547, -0.05746844410896301, -0.02232913114130497, -0.02433783747255802, 0.031150471419095993, -0.16601291298866272, 0.0136762335896492, 0.06181364133954048, 0.019016355276107788, 0.03295200318098068, 0.00200450187548995, 0.053398750722408295, -0.05888039991259575, -0.022052885964512825, 0.0526646263897419, -0.007272564806044102, 0.028018631041049957, -0.02973797172307968, -0.09756550937891006, 0.0042450628243386745, -0.009116170927882195, -0.18203094601631165, 0.12765216827392578, 0.1013682410120964, -0.06014242395758629, -0.007799220271408558, 0.09928810596466064, 0.043282873928546906, -0.036311473697423935, -0.02766988053917885, 0.09496726840734482, -0.04347842559218407, 0.12740583717823029, 0.019418369978666306, 0.19475387036800385, -0.14169953763484955, -0.018029138445854187, -0.03965052589774132, -0.12126621603965759, -0.09384483844041824, 0.11906394362449646, 0.04500042274594307, 0.06362078338861465, -0.08681992441415787, -0.06542627513408661, -0.10453569144010544, 0.12057144194841385, -0.06196947023272514, -0.06595513224601746, 0.021939104422926903, 0.002598439808934927, 0.06933683156967163, -0.13311664760112762, -0.08670298010110855, -0.13361398875713348, 0.07336168736219406, -0.10338536649942398, 0.15386489033699036, 0.11358167976140976, 0.04029025137424469, 0.012501312419772148, -0.20480510592460632, 0.07886285334825516, 0.0010568908182904124, 0.043253179639577866, -0.07829314470291138, -0.009529372677206993, -0.030274773016572, 0.04818122461438179, -0.011450879275798798, -0.15629196166992188, -0.0014981264248490334, 0.012544305063784122, 0.04237639158964157, -0.16101062297821045, -0.1255488246679306, 0.19713138043880463, -0.17568323016166687, -0.04543757066130638, 0.012596486136317253, 0.03721209987998009, 0.052081990987062454, -0.15568973124027252, -0.07007066160440445, -0.13182729482650757, 0.15551571547985077, -0.016725046560168266, -0.21073728799819946, -0.03272927552461624, 0.07605227082967758, -0.12487497180700302, 0.09235472977161407, -0.11762050539255142, -0.06057588383555412], [0.08801311999559402, -0.008206547237932682, 0.03378990665078163, -0.18046244978904724, 0.04434347525238991, -0.16372635960578918, 0.15574617683887482, 0.17929664254188538, 0.05055683106184006, -0.0769665390253067, 0.17652766406536102, 0.36139795184135437, 0.3005244731903076, -0.06403062492609024, 0.23572227358818054, 0.16393731534481049, -0.09651663154363632, 0.2416049838066101, 0.2522568106651306, -0.10340406745672226, 0.08190349489450455, -0.15170568227767944, 0.12947770953178406, -0.29014530777931213, 0.018817797303199768, 0.26283755898475647, -0.13974055647850037, 0.11393289268016815, 0.06765471398830414, 0.0822753980755806, 0.22572971880435944, -0.10216545313596725, -0.013922594487667084, 0.11324276030063629, -0.12944844365119934, 0.032088905572891235, 0.11432256549596786, 0.20232057571411133, 0.07012120634317398, -0.05305212736129761, 0.1669687181711197, 0.02120988629758358, 0.20369955897331238, 0.17775535583496094, 0.18993784487247467, -0.047960855066776276, -0.021643972024321556, 0.03945426270365715, 0.10935398191213608, -0.1668584644794464, -0.0765363797545433, -0.07564388960599899, -0.11227476596832275, 0.2197216898202896, -0.1818770319223404, -0.0907207503914833, 0.010351301170885563, -0.13256511092185974, 0.07091023027896881, 0.039218656718730927, 0.03547558933496475, -0.07180629670619965, -0.05696428567171097, -0.0754542425274849, -0.09877572953701019, 0.21404655277729034, -0.12268967926502228, 0.082970529794693, -0.018321145325899124, -0.14382363855838776, -0.005755119491368532, 0.13575531542301178, 0.0123964948579669, -0.0158869456499815, -0.090160071849823, -0.1794821172952652, 0.05435754731297493, -0.11801735311746597, -0.07562539726495743, 0.04698913171887398, -0.3913841247558594, -0.09909595549106598, -0.0772012397646904, -0.22222158312797546, 0.20606540143489838, 0.05563816428184509, -0.10002318024635315, 0.026135334745049477, -0.14556929469108582, -0.06321194767951965, -0.09847824275493622, -0.04099007695913315, -0.05339430272579193, 0.31878653168678284, 0.10922295600175858, 0.04544723406434059, 0.18715837597846985, 0.15297681093215942, -0.015249262563884258, -0.1378137469291687, -0.09290877729654312, 0.06519488245248795, -0.0966300219297409, 0.38608068227767944, -0.10238315165042877, 0.08937601745128632, -0.06954188644886017, 0.08637800067663193, 0.28143393993377686, 0.17051930725574493, 0.01612747833132744, 0.11391118913888931, -0.12110188603401184, 0.15932372212409973, -0.07154937833547592, 0.12377802282571793, 0.04018808901309967, 0.13436055183410645, -0.04518180713057518, -0.15572167932987213, -0.05497119948267937, 0.022972892969846725, -0.03450598940253258, -0.3173622190952301, -0.03226988762617111, 0.04533343017101288, 0.0017463500844314694, -0.036190301179885864], [-0.07435953617095947, -0.15301506221294403, -0.18199454247951508, 0.007201218046247959, 0.08879410475492477, -0.061435386538505554, 0.1137779951095581, -0.12081536650657654, -0.09837951511144638, 0.042255450040102005, 0.1696573793888092, -0.07638690620660782, 0.010025438852608204, -0.13912102580070496, 0.026687150821089745, 0.08820007741451263, 0.04033059999346733, 0.002027965383604169, 0.1284990757703781, -0.16182945668697357, 0.09928052127361298, 0.12171527743339539, 0.08800500631332397, 0.10797178000211716, -0.05705080181360245, -0.04407571256160736, -0.0718078687787056, -0.035442110151052475, -0.09247284382581711, -0.014321244321763515, 0.10143832117319107, 0.1336241066455841, 0.11003094166517258, 0.2360095977783203, 0.07758525758981705, 0.03243277221918106, -0.17267625033855438, -0.09538519382476807, -0.08880800008773804, 0.07503214478492737, 0.07544239610433578, 0.08204632997512817, -0.013434545136988163, -0.12439747154712677, -0.0764932930469513, -0.019878555089235306, -0.15859347581863403, 0.08340193331241608, -0.06018371507525444, 0.12528084218502045, -0.06888498365879059, 0.058150216937065125, -0.12143699824810028, 0.12016826868057251, 0.08261403441429138, 0.06715483218431473, -0.022370461374521255, -0.07415767759084702, -0.013158965855836868, -0.05897747725248337, 0.07540951669216156, -0.027098510414361954, -0.10330364108085632, -0.18330426514148712, -0.10757174342870712, 0.12726731598377228, 0.023224713280797005, 0.09711684286594391, 0.08466313779354095, -0.05500050261616707, 0.18610277771949768, -0.16691471636295319, 0.023509487509727478, 0.02073070965707302, -0.008786126971244812, 0.03242209926247597, 0.04978380352258682, 0.045583829283714294, -0.1140487790107727, 0.08561968803405762, -0.10081099718809128, 0.12203914672136307, 0.0874861404299736, -0.042772289365530014, 0.11011464893817902, 0.18371273577213287, -0.11204471439123154, 0.1730526089668274, 0.12187828868627548, 0.10747762024402618, 0.03151202201843262, 0.08994776010513306, 0.15595968067646027, 0.13112765550613403, -0.02703617326915264, 0.039163537323474884, -0.1539311408996582, -0.05246184021234512, -0.18075039982795715, 0.05470293387770653, 0.10291991382837296, 0.015318121761083603, 0.16122494637966156, 0.13942797482013702, 0.015558543615043163, 0.04576168581843376, 0.021901443600654602, -0.016090121120214462, -0.15778511762619019, -0.03440242260694504, 0.0023852798622101545, 0.06225619837641716, -0.046097610145807266, -0.23027051985263824, 0.014460884965956211, -0.08733163774013519, 0.14753641188144684, -0.015094701200723648, 0.005874500144273043, 0.0871167704463005, -0.05849616974592209, 0.053661756217479706, 0.0031105391681194305, -0.13837993144989014, -0.010774131864309311, 0.18728311359882355, 0.024956244975328445, -0.019759900867938995], [-0.015522735193371773, -0.006962157320231199, 0.009966449812054634, -0.14736491441726685, 0.0799775943160057, 0.07826301455497742, -0.12369877845048904, 0.049945324659347534, -0.09132426977157593, 0.21704423427581787, 0.14771448075771332, 0.05138035863637924, 0.171836718916893, -0.029530562460422516, -0.1486877202987671, 0.1291453093290329, 0.0032503081019967794, -0.08056635409593582, 0.014536388218402863, -0.08966309577226639, -0.13626664876937866, -0.1769665777683258, -0.0009167309617623687, -0.18592828512191772, 0.0609683021903038, 0.0016975462203845382, -0.04751373454928398, 0.0774834007024765, -0.014566652476787567, 0.05268246307969093, 0.06509821116924286, 0.09799961000680923, -0.07097690552473068, 0.0240167323499918, -0.04106897488236427, -0.08014099299907684, -0.011968080885708332, 0.009316566400229931, -0.15841764211654663, 0.16829484701156616, 0.027945976704359055, -0.14101673662662506, -0.039984092116355896, 0.07393523305654526, 0.12462981790304184, -0.1656518131494522, 0.11420979350805283, 0.14349129796028137, 0.0024389023892581463, 0.10861214995384216, -0.007445388473570347, -0.14391139149665833, 0.06877671182155609, -0.06883969902992249, 0.12009379267692566, -0.11408388614654541, -0.011361044831573963, -0.09471965581178665, 0.12817128002643585, -0.01805262826383114, -0.1661827117204666, 0.03973516821861267, -0.11101865023374557, -0.14026224613189697, -0.04447073116898537, 0.20065192878246307, 0.12740658223628998, -0.09080076217651367, -0.06766434013843536, 0.027379190549254417, -0.053041521459817886, 0.062409136444330215, 0.004235386848449707, 0.09688838571310043, 0.15266801416873932, -0.019957510754466057, 0.14145980775356293, -0.06451927870512009, -0.06745205074548721, -0.007676983717828989, -0.031668227165937424, -0.11486413329839706, 0.16288799047470093, 0.07756014168262482, 0.09553677588701248, 0.09208977967500687, -0.09016009420156479, 0.1071682721376419, 0.07253517210483551, -0.057179879397153854, 0.1691053956747055, -0.10923417657613754, -0.10254992544651031, 0.1499321609735489, 0.07020357996225357, -0.043441880494356155, -0.09773390740156174, 0.09882247447967529, 0.1358029842376709, 0.13113905489444733, -0.12454571574926376, 0.2082933634519577, -0.07599066197872162, 0.1003979966044426, 0.12429161369800568, -0.14455217123031616, 0.0965408906340599, -0.07631690800189972, -0.07631882280111313, -0.05710190534591675, 0.06224088743329048, -0.0042038653045892715, -0.08265937864780426, -0.13061583042144775, -0.1281222552061081, -0.014823419973254204, -0.001954515464603901, 0.13960571587085724, 0.153042733669281, -0.09725025296211243, 0.09242604672908783, -0.02241491712629795, -0.08412855863571167, 0.1394302248954773, 0.06941374391317368, -0.08817622065544128, 0.0618901327252388, 0.14109161496162415], [0.19975148141384125, -0.06795360147953033, -0.02682219073176384, -0.10129998624324799, -0.056826818734407425, -0.003190112067386508, 0.16944779455661774, -0.0469217412173748, 0.2730652689933777, 0.00512967212125659, -0.006543366704136133, 0.0986093059182167, -0.178034245967865, -0.09012123942375183, 0.019666291773319244, -0.03988119587302208, -0.11967971175909042, -0.03584077209234238, -0.12543125450611115, -0.1776016354560852, 0.04102738946676254, 0.01135899405926466, 0.14299611747264862, -0.206124946475029, 0.04765526205301285, -0.041275568306446075, 0.05718466639518738, -0.11609809100627899, 0.035376373678445816, 0.06041664630174637, 0.11902567744255066, -0.011216675862669945, 0.09182941168546677, -0.11086884886026382, 0.1596263200044632, -0.1344957798719406, -0.027677036821842194, -0.13306337594985962, -0.11145208030939102, 0.1844003051519394, -0.13763611018657684, -0.033378954976797104, -0.06014265492558479, 0.036931924521923065, 0.017804566770792007, 0.08726457506418228, 0.03513805568218231, -0.10818357020616531, 0.044447124004364014, -0.02237330935895443, 0.06000504642724991, 0.10768941044807434, 0.003228049958124757, 0.013308878988027573, 0.08863276243209839, -0.0012338805245235562, 0.04865819960832596, 0.10230203717947006, -0.20978231728076935, -0.041207220405340195, 0.08765949308872223, -0.10267778486013412, 0.07047291100025177, -0.027510780841112137, 0.06591939181089401, 0.022870447486639023, -0.032528799027204514, 0.017606541514396667, -0.04344736412167549, -0.1079290583729744, -0.17125438153743744, 0.02928263507783413, -0.17509952187538147, -0.03766949102282524, -0.09581781178712845, -0.09485208243131638, -0.07718446105718613, -0.10056713223457336, -0.07677911967039108, -0.015069507993757725, -0.029498223215341568, -0.11806129664182663, -0.0446811281144619, 0.04863867536187172, -0.10945688933134079, 0.17184585332870483, 0.0334550142288208, -0.13598228991031647, -0.015520147979259491, 0.04764753207564354, -0.03607979789376259, 0.053427089005708694, -0.018529973924160004, -0.08785472810268402, 0.09853574633598328, -0.0467635840177536, 0.04474661126732826, -0.14343395829200745, -0.07941252738237381, -0.022738687694072723, 0.07207094877958298, 0.03731272742152214, -0.005795508157461882, -0.1028670072555542, -0.09160556644201279, 0.14655818045139313, 0.14526426792144775, -0.1904168576002121, 0.1263280212879181, 0.043714120984077454, 0.05031178519129753, -0.08715885132551193, -0.0844176784157753, 0.07800646871328354, 0.0827728882431984, -0.042722150683403015, -0.03477659076452255, -0.06102227792143822, -0.006676437798887491, -0.12560200691223145, -0.0221452247351408, -0.025166241452097893, -0.06784740835428238, -0.09096430242061615, -0.07650555670261383, 0.05199972540140152, -0.20282840728759766, -0.06550928205251694], [0.11704413592815399, 0.04929425194859505, 0.011120835319161415, 0.0711531862616539, 0.12001994252204895, 0.10397148132324219, -0.12746357917785645, -0.031412214040756226, 0.1924145519733429, 0.10221939533948898, -0.07815640419721603, -0.019684400409460068, 0.12561935186386108, -0.0013853615382686257, 0.12909969687461853, 0.17544309794902802, -0.03267056122422218, 0.07676441222429276, 0.006494334898889065, 0.14819106459617615, 0.014990190044045448, -0.0509721040725708, 0.09515441209077835, -0.03099203109741211, -0.008667854592204094, -0.12684638798236847, -0.050262950360774994, 0.03737466782331467, 0.005074982065707445, 0.030374018475413322, 0.08675064146518707, 0.0767965316772461, -0.15487496554851532, 0.03315195441246033, 0.1434866040945053, -0.0702195093035698, -0.12515951693058014, -0.265586256980896, 0.12023738771677017, 0.009085343219339848, 0.15245379507541656, 0.013344201259315014, 0.13513989746570587, -0.05629296228289604, 0.1666577309370041, -0.07077673077583313, -0.006539844907820225, -0.09237883985042572, -0.14594534039497375, 0.018919644877314568, 0.19532139599323273, 0.03434424474835396, 0.2875607907772064, 0.15445168316364288, -0.04426536709070206, -0.06919096410274506, 0.017096184194087982, -0.10724634677171707, 0.143896222114563, -0.042904190719127655, -0.10383162647485733, 0.0801001638174057, 0.03598848357796669, 0.09588807821273804, -0.09735424071550369, -0.14505383372306824, 0.1203712522983551, 0.026026535779237747, -0.010744682513177395, 0.06811849772930145, 0.06037074327468872, -0.06592956930398941, 0.10524109750986099, -0.00291490089148283, -0.2167491763830185, 0.010097100399434566, -0.014469084329903126, 0.1393582820892334, 0.10961814224720001, -0.20962083339691162, -0.03235066682100296, -0.07367530465126038, 0.005404732655733824, -0.04314468428492546, 0.07330279052257538, -0.07265987992286682, 0.011724594980478287, 0.15118680894374847, 0.032530032098293304, 0.11912178993225098, -0.10128504782915115, 0.09156271815299988, -0.032581914216279984, -0.08582315593957901, -0.1693124920129776, -0.08529483526945114, 0.1410333812236786, -0.02789805829524994, -0.07223373651504517, 0.12965449690818787, 0.07704534381628036, 0.058143556118011475, 0.11881007999181747, 0.10537499934434891, -0.1602240800857544, -0.18481981754302979, -0.0997699424624443, 0.027680447325110435, -0.13633674383163452, -0.08624927699565887, -0.004214149434119463, -0.12158972024917603, -0.09107553213834763, 0.04625340551137924, 0.19736739993095398, 0.00322670117020607, 0.15161333978176117, 0.05421001836657524, -0.040131065994501114, 0.07593510299921036, -0.0016842681216076016, -0.03963027894496918, -0.1270906627178192, -0.012403000146150589, -0.19733765721321106, -0.16880923509597778, 0.017257994040846825, 0.12139973789453506], [0.01094035804271698, 0.03638951852917671, 0.1684867888689041, 0.15690132975578308, -0.06225511059165001, -0.008906971663236618, 0.12916426360607147, 0.036534469574689865, 0.06817348301410675, 0.14596424996852875, 0.1344018578529358, 0.04593991860747337, -0.09498760849237442, -0.1647062748670578, -0.059761591255664825, 0.20815278589725494, 0.033284131437540054, -0.024681072682142258, -0.02220609039068222, 0.06354615837335587, 0.08348333835601807, -0.044716935604810715, -0.02727009542286396, 0.04147407412528992, 0.0383506715297699, 0.06612363457679749, 0.08320043981075287, 0.06728727370500565, 0.09322778135538101, 0.002543348353356123, -0.02021288126707077, 0.15578293800354004, 0.06842795014381409, 0.042786289006471634, -0.06842851638793945, 0.12104914337396622, 0.047844067215919495, 0.19967052340507507, 0.04051045700907707, -0.11391473561525345, -0.09112212061882019, -0.056881844997406006, -0.09132181853055954, -0.14636220037937164, -0.09380979090929031, -0.14216454327106476, 0.11678028106689453, 0.06857871264219284, -0.0640704333782196, -0.055605124682188034, 0.10378170758485794, 0.06691304594278336, 0.13745322823524475, -0.10970860719680786, -0.07090124487876892, -0.046414393931627274, -0.06617087125778198, -0.1095517948269844, -0.11028453707695007, 0.05563656985759735, -0.1662595570087433, 0.020362718030810356, -0.16141977906227112, -0.07686428725719452, 0.0850638747215271, 0.03876715153455734, -0.09180948138237, 0.09295772761106491, -0.10767563432455063, 0.15732251107692719, 0.008214744739234447, 0.0177215114235878, 0.09933498501777649, -0.015447908081114292, -0.06909719109535217, 0.09992635250091553, 0.014751376584172249, -0.05184519663453102, 0.13697083294391632, -0.08666267991065979, 0.0026775184087455273, -0.02653985656797886, 0.12408887594938278, 0.05927259474992752, 0.0859198272228241, -0.07781032472848892, -0.05528528615832329, -0.1521989405155182, -0.008981582708656788, 0.008505786769092083, -0.18374201655387878, 0.12029214948415756, -0.012492869049310684, 0.03281490132212639, 0.05964597687125206, 0.057185038924217224, 0.22833220660686493, -0.0018187236273661256, 0.09704743325710297, -0.20985782146453857, -0.053251296281814575, -0.04595229774713516, 0.04512188956141472, 0.041230708360672, -0.05369888246059418, -0.06556333601474762, -0.11229544878005981, -0.0021645433735102415, -0.09015759825706482, -0.009907247498631477, 0.002845398848876357, -0.09500028192996979, -0.16038742661476135, -0.09002427756786346, -0.05469110980629921, 0.1572500318288803, 0.16558332741260529, -0.06260502338409424, -0.07817273586988449, 0.07479991763830185, 0.09492926299571991, 0.03256084397435188, -0.050892654806375504, 0.1548748016357422, -0.07272480428218842, 0.07468514889478683, -0.2516992688179016, -0.1757209450006485], [0.08089378476142883, 0.377409428358078, 0.2894169092178345, 0.16597911715507507, -0.16657978296279907, -0.2500404715538025, -0.09575861692428589, 0.26784825325012207, 0.05726708844304085, -0.07792174816131592, 0.0945129469037056, -0.012625751085579395, 0.09009961783885956, -0.09852393716573715, 0.14844664931297302, 0.18205329775810242, 0.15034227073192596, 0.15147808194160461, 0.08092107623815536, 0.11519844830036163, 0.1477651596069336, 0.19750851392745972, 0.28817611932754517, -0.023001668974757195, -0.2666386067867279, 0.003438505344092846, -0.19332703948020935, -0.09493590891361237, 0.24265040457248688, 0.01368403434753418, 0.053017135709524155, -0.34714287519454956, 0.08379245549440384, -0.08270280808210373, -0.042252153158187866, -0.19897881150245667, -0.03985654562711716, -0.08093491196632385, 0.2634773254394531, 0.021709701046347618, 0.3482678532600403, 0.21891126036643982, 0.11781474947929382, 0.15768767893314362, -0.20929460227489471, -0.2252073436975479, 0.047977514564991, -0.14648394286632538, 0.052424754947423935, -0.2366817593574524, -0.11153224110603333, 0.04034435376524925, 0.055968597531318665, -0.020010868087410927, -0.02764531597495079, -0.20086616277694702, 0.10045316070318222, 0.15474726259708405, -0.2595835030078888, -0.1163339614868164, -0.28738391399383545, 0.021362019702792168, -0.37695562839508057, -0.12445154041051865, 0.13027754426002502, -0.11739292740821838, 0.05163317546248436, -0.21343934535980225, -0.0745001807808876, -0.015918655321002007, -0.002523005474358797, -0.09066059440374374, -0.22705763578414917, 0.050528038293123245, -0.12321017682552338, -0.11192088574171066, 0.17470766603946686, -0.12140755355358124, -0.06088723987340927, -0.05673547089099884, -0.15198573470115662, -0.05993033945560455, -0.026212649419903755, 0.1455962359905243, -0.11352663487195969, 0.02206195332109928, 0.24238358438014984, 0.19832077622413635, -0.15602898597717285, 0.13219526410102844, 0.14089307188987732, 0.24232780933380127, 0.2359815388917923, -0.19448651373386383, -0.1447252482175827, 0.008825037628412247, -0.037321411073207855, 0.05413637310266495, 0.20162621140480042, -0.28065022826194763, -0.12737467885017395, 0.3189975321292877, -0.1614602506160736, -0.1747521460056305, -0.11057200282812119, -0.09986338019371033, -0.2185470014810562, -0.18669334053993225, 0.2836678922176361, -0.008016335777938366, 0.008563090115785599, -0.10141821950674057, -0.16991306841373444, -0.2005719244480133, 0.14087335765361786, 0.20499838888645172, 0.24488277733325958, -0.15053290128707886, -0.3094758987426758, 0.004020964726805687, -0.04655534029006958, 0.04953362047672272, 0.27406764030456543, 0.12065786868333817, 0.17472025752067566, 0.13994541764259338, -0.19191265106201172, 0.05114302411675453], [0.07132051885128021, -0.0444926954805851, -0.0037014333065599203, 0.09117595106363297, -0.1461983323097229, 0.06188564747571945, 0.08539523184299469, 0.11399226635694504, 0.24578508734703064, -0.2669200003147125, -0.04221785441040993, 0.17102062702178955, 0.0689486488699913, 0.17384092509746552, 0.06346668303012848, -0.23475779592990875, -0.2581205666065216, 0.3293214738368988, 0.016106292605400085, -0.0465499609708786, 0.07324706763029099, 0.2614276707172394, 0.06731577217578888, 0.0759318545460701, 0.1817522794008255, -0.19124145805835724, 0.1300477385520935, -0.06077923998236656, -0.21025466918945312, 0.06983505189418793, 0.011096213944256306, 0.047914762049913406, -0.12908591330051422, 0.22244402766227722, 0.042790625244379044, -0.15737111866474152, 0.18745684623718262, -0.31430646777153015, -0.170445516705513, -0.020390093326568604, -0.17098449170589447, 0.010841931216418743, -0.17153920233249664, -0.05041255056858063, 0.05940001457929611, -0.16994284093379974, -0.02725794166326523, 0.014705365523695946, 0.21572615206241608, -0.2872470021247864, 0.24805358052253723, -0.0988624170422554, -0.004596320446580648, 0.1314724236726761, 0.15827210247516632, -0.07499201595783234, -0.1977030336856842, 0.27978965640068054, 0.1582476645708084, -0.01793508604168892, -0.11631225049495697, 0.14301496744155884, 0.1840093433856964, -0.04621011018753052, 0.12262018024921417, -0.18356549739837646, -0.3150220513343811, 0.08796258270740509, -0.17480382323265076, 0.22166813910007477, -0.24829651415348053, 0.16088718175888062, -0.149144247174263, 0.16640862822532654, -0.2008509337902069, 0.04470791295170784, -0.26662054657936096, 0.18949830532073975, -0.10073736310005188, -0.10747809708118439, -0.0773187056183815, 0.1510004848241806, 0.007192631252110004, -0.1598818004131317, 0.3168542683124542, -0.29416146874427795, -0.03504497930407524, -0.1237255334854126, -0.2662389278411865, -0.10104594379663467, 0.21903808414936066, -0.11442454904317856, 0.0008065022993832827, -0.043579164892435074, -0.10523676872253418, 0.05223121494054794, 0.004333823453634977, 0.02302316017448902, 0.004512185230851173, -0.038373999297618866, -0.026319170370697975, 0.14447137713432312, 0.08644414693117142, -0.0854155570268631, 0.02246200293302536, 0.190068319439888, -0.13649334013462067, 0.0372086837887764, -0.0688687190413475, -0.018545232713222504, 0.10568954050540924, -0.1425393521785736, -0.2549585998058319, -0.013365157879889011, -0.03072664886713028, -0.12094859778881073, -0.14016683399677277, -0.07817430794239044, 0.16581225395202637, 0.012903512455523014, 0.07110681384801865, 0.10997211933135986, -0.23105518519878387, -0.2924908399581909, 0.03226800635457039, 0.0954248309135437, 0.1380227506160736, -0.035553619265556335], [0.22796057164669037, -0.14614951610565186, -0.31644362211227417, 0.08097952604293823, 0.2445814162492752, 0.22453048825263977, -0.12366387993097305, -0.1335909366607666, -0.14509689807891846, 0.06962065398693085, -0.2336854189634323, -0.8081077337265015, 0.21643801033496857, -0.06080217286944389, 0.2705271542072296, -0.20489376783370972, 0.15854045748710632, -0.23836582899093628, -0.14884503185749054, -0.24892818927764893, -0.17347551882266998, -0.15928858518600464, 0.13232681155204773, -0.2803766131401062, -0.06736454367637634, -0.03950008749961853, 0.2234489768743515, 0.1622237265110016, -0.14956583082675934, 0.2074315845966339, -0.015084827318787575, 0.23133237659931183, 0.4034597873687744, 0.00918642058968544, 0.017487658187747, 0.22894063591957092, -0.2544078528881073, -0.21563026309013367, -0.11434799432754517, 0.27662450075149536, -0.21763202548027039, 0.2696492075920105, 0.04840013012290001, -0.03765305504202843, 0.3128184974193573, 0.015711365267634392, 0.03621703013777733, -0.1778153032064438, -0.07601658254861832, 0.20389650762081146, -0.13799932599067688, 0.15843799710273743, 0.20197613537311554, 0.11632261425256729, 0.21248655021190643, -0.18446572124958038, -0.04266346991062164, -0.32848694920539856, -0.0940488800406456, 0.06673961877822876, 0.11125128716230392, -0.19407545030117035, 0.4167524576187134, -0.0005269498215056956, 0.13075655698776245, -0.21553634107112885, -0.027012379840016365, 0.18230175971984863, 0.06412041932344437, 0.18931856751441956, -0.1427500993013382, 0.10931901633739471, 0.1925397515296936, -0.02946486696600914, 0.259156733751297, 0.03906046599149704, 0.1600933074951172, 0.14303340017795563, -0.08400345593690872, -0.40323275327682495, 0.1764741986989975, -0.15805163979530334, -0.23158106207847595, 0.026115471497178078, 0.16586926579475403, -0.03387030214071274, -0.1619955152273178, -0.14116708934307098, -0.013917284086346626, 0.04481412097811699, 0.24063463509082794, 0.26200029253959656, -0.24894604086875916, -0.00608546007424593, -0.15131579339504242, -0.35273829102516174, 0.04855061322450638, 0.3160586953163147, 0.06431027501821518, 0.024120690301060677, 0.027756454423069954, -0.0038960136007517576, 0.1349882036447525, -0.2340717315673828, 0.09937076270580292, -0.5183985233306885, -0.28452345728874207, 0.2295113354921341, -0.2084917426109314, 0.001838878495618701, -0.02219863422214985, -0.017037920653820038, -0.10317573696374893, -0.1837790459394455, -0.1355220526456833, 0.1001645103096962, -0.08897443115711212, -0.13942460715770721, -0.006587930489331484, 0.13320428133010864, 0.18915815651416779, -0.12857940793037415, -0.07016418874263763, -0.07564934343099594, -0.2730181813240051, 0.11347843706607819, -0.006441859062761068, 0.16867218911647797], [0.03118007630109787, -0.02510908432304859, -0.27735304832458496, 0.18394768238067627, -0.020348498597741127, 0.11080349236726761, -0.04602767154574394, -0.09054668247699738, 0.03964044526219368, -0.07614157348871231, -0.20833589136600494, -0.1043175458908081, -0.04461580887436867, -0.11553926020860672, 0.30810657143592834, 0.04128061607480049, -0.019781261682510376, -0.1434536725282669, 0.04554333910346031, -0.02209540270268917, -0.3257957100868225, 0.04852613806724548, -0.18962343037128448, -0.3853045105934143, 0.23412422835826874, 0.12311140447854996, 0.2966422140598297, -0.0035499047953635454, -0.1188441589474678, -0.1805640608072281, 0.049507174640893936, 0.3092499375343323, 0.3508342504501343, 0.045181963592767715, 0.25960925221443176, 0.10323954373598099, -0.13456735014915466, 0.07553714513778687, -0.15372321009635925, -0.17579735815525055, -0.1632460653781891, -0.1426943689584732, -0.18652579188346863, -0.3104958236217499, -0.014791276305913925, -0.11589375138282776, 0.2910403311252594, -0.15968537330627441, 0.012801909819245338, 0.16857431828975677, 0.10915865749120712, 0.21195371448993683, 0.22871439158916473, -0.07015322893857956, -0.19764363765716553, -0.09437460452318192, 0.10917012393474579, -0.2132045179605484, -0.07631915807723999, -0.213906392455101, 0.08038373291492462, 0.20342054963111877, -0.07535368204116821, -0.023364897817373276, 0.1680687963962555, 0.17838525772094727, -0.06803590059280396, 0.15595489740371704, 0.1492134928703308, -0.12482371926307678, -0.3140803277492523, -0.11797099560499191, -0.28833988308906555, 0.21477288007736206, -0.047021396458148956, 0.13634729385375977, 0.15119726955890656, 0.0205482579767704, 0.04942810907959938, -0.051034364849328995, 0.1773708611726761, -0.1661907136440277, -0.17201858758926392, -0.11684229969978333, 0.11896360665559769, 0.017510009929537773, -0.3061530292034149, 0.036393485963344574, 0.18123306334018707, -0.1296565979719162, -0.010546880774199963, -0.4229065179824829, 0.24143476784229279, -0.14012391865253448, -0.27334558963775635, -0.20234890282154083, 0.035273343324661255, -0.11883874982595444, -0.03222440555691719, 0.18895035982131958, -0.22779731452465057, 0.05163341760635376, 0.24975767731666565, 0.24254032969474792, -0.4009958505630493, 0.004747497383505106, -0.12307822704315186, -0.22978247702121735, -0.06412871181964874, 0.09218724817037582, -0.05970211699604988, -0.2022455632686615, -0.24297194182872772, -0.12276221811771393, -0.12718050181865692, -0.14768195152282715, -0.14274266362190247, 0.09953124076128006, -0.08000912517309189, -0.07429756224155426, -0.3114113211631775, -0.2385469377040863, -0.23319800198078156, -0.0226846132427454, -0.12303396314382553, -0.06881197541952133, 0.23598478734493256, 0.11414137482643127], [0.12247122824192047, -0.05995650961995125, 0.12229793518781662, 0.07179957628250122, 0.12239377200603485, 0.12167803943157196, 0.09230106323957443, -0.10717689990997314, -0.24882273375988007, -0.21618054807186127, -0.10736091434955597, -0.18710534274578094, -0.11026608943939209, 0.12477566301822662, -0.1810825914144516, 0.002684558741748333, -0.40558165311813354, -0.09118116647005081, 0.03774416446685791, -0.18646372854709625, 0.0395653210580349, 0.03540091961622238, -0.21704624593257904, 0.09250283241271973, 0.13469955325126648, 0.13086950778961182, -0.17908185720443726, -0.019969120621681213, 0.03573601320385933, -0.11277687549591064, -0.11325187981128693, 0.03669269382953644, 0.0779375284910202, 0.24100442230701447, 0.04949648305773735, -0.021519439294934273, 0.12248268723487854, 0.18622460961341858, 0.09368240088224411, -0.07814674824476242, -0.1451633870601654, -0.13823552429676056, 0.3090451955795288, -0.16648823022842407, 0.14139778912067413, -0.11805782467126846, -0.16695308685302734, -0.18035703897476196, -0.22874440252780914, 0.0250413678586483, -0.0429704412817955, -0.13461147248744965, 0.04132027179002762, 0.21276560425758362, 0.029396727681159973, -0.1642693281173706, -0.19543451070785522, -0.19188393652439117, 0.015933558344841003, 0.1674315184354782, -0.09887443482875824, 0.10903893411159515, 0.014109957031905651, 0.0735689029097557, -0.11493945866823196, 0.028217200189828873, -0.1830238252878189, 0.0006475362461060286, -0.05449512600898743, -0.11771935224533081, -0.016531910747289658, 0.1576751321554184, 0.14906848967075348, -0.11916878819465637, 0.22817805409431458, -0.04434841498732567, 0.1778467744588852, 0.30312180519104004, 0.17624817788600922, 0.1356959193944931, 0.03287526220083237, 0.10924854874610901, 0.18175053596496582, -0.17519807815551758, -0.19341526925563812, 0.33765101432800293, 0.031618449836969376, -0.021337492391467094, 0.023307491093873978, 0.20881032943725586, -0.24496948719024658, 0.08585380762815475, -0.21967236697673798, 0.10078302025794983, 0.014754331670701504, 0.059897106140851974, -0.10402008891105652, 0.134076327085495, -0.003624825505539775, -0.018800145015120506, 0.07170562446117401, 0.18325741589069366, -0.005135560408234596, 0.07195207476615906, 0.152772918343544, -0.14946989715099335, 0.0014560873387381434, -0.08135301619768143, 0.17911845445632935, 0.14537006616592407, -0.14564411342144012, 0.049698930233716965, 0.1499844789505005, -0.21678940951824188, -0.2250923067331314, -0.045134466141462326, -0.035776227712631226, 0.1845501959323883, 0.19015459716320038, 0.21289213001728058, 0.08852844685316086, -0.04508691653609276, 0.17770162224769592, -0.06646782904863358, -0.01596187800168991, 0.021646935492753983, 0.03579550236463547, 0.13977104425430298], [-0.0390469916164875, -0.136583149433136, 0.20262613892555237, 0.1651744693517685, -0.08974932134151459, 0.05936363339424133, -0.08547154068946838, -0.02905362658202648, -0.15429909527301788, 0.052234601229429245, -0.10687419772148132, 0.037822481244802475, -0.02139374241232872, -0.0323328897356987, -0.07010047137737274, 0.10744915902614594, -0.13394400477409363, -0.019008584320545197, -0.037197306752204895, -0.1151316687464714, 0.09639798104763031, -0.17838607728481293, 0.1154547780752182, 0.01802070625126362, -0.02898135967552662, -0.13978977501392365, -0.10632302612066269, 0.037689533084630966, -0.04927632212638855, -0.04213795065879822, -0.0869520753622055, 0.1311635673046112, -0.031612709164619446, -0.004726111423224211, 0.10295432806015015, -0.09994300454854965, -0.10292680561542511, 0.03222519904375076, -0.12292401492595673, -0.02363935299217701, -0.1424328237771988, -0.07991470396518707, -0.1482885181903839, -0.061967603862285614, 0.10706118494272232, 0.03411514684557915, -0.05288319289684296, -0.1000685766339302, 0.11682168394327164, -0.15073508024215698, 0.10677681118249893, -0.2392081469297409, 0.09456877410411835, 0.11364252120256424, 0.0795876681804657, 0.14944471418857574, -0.07335886359214783, 0.04677947610616684, 0.10573749989271164, -0.02525404840707779, 0.13209576904773712, -0.0524776317179203, 0.08330854773521423, -0.04864809662103653, -0.15697768330574036, -0.07129790633916855, -0.008313496597111225, -0.0624910332262516, -0.21965733170509338, 0.14477130770683289, -0.14442148804664612, 0.07409684360027313, -0.12943628430366516, 0.1119324117898941, -0.09736393392086029, -0.11281542479991913, 0.033465512096881866, 0.15504369139671326, -0.1159801334142685, 0.03825395181775093, -0.10393307358026505, -0.08663809299468994, -0.09651714563369751, 0.05725471302866936, 0.04762250557541847, -0.07882806658744812, -0.041392430663108826, -0.09911761432886124, 0.1337396502494812, 0.0650656670331955, -0.1271403729915619, 0.06378667056560516, -0.15658187866210938, -0.11698959022760391, -0.1128196194767952, -0.04249513894319534, -0.06482352316379547, -0.04904251545667648, -0.08462966233491898, 0.037584930658340454, 0.1333416849374771, -0.10614048689603806, -0.08347880095243454, -0.053664516657590866, 0.08636128157377243, -0.05502114072442055, 0.09967705607414246, -0.07387661188840866, -0.03493786230683327, 0.013604908250272274, -0.10647516697645187, -0.1346840262413025, -0.024863554164767265, -0.027457300573587418, -0.03483619540929794, -0.02133571170270443, 0.12005114555358887, 0.03500174358487129, 0.03331218287348747, -0.1622769683599472, 0.09971718490123749, 0.026006577536463737, 0.0758797898888588, -0.06343570351600647, 0.10216883569955826, 0.11287765949964523, -0.04488725587725639, -0.06225741282105446], [0.1668117642402649, 0.10078036785125732, 0.01719081401824951, -0.13276317715644836, -0.07790084928274155, 0.014486879110336304, -0.12323756515979767, -0.052770718932151794, 0.08796656131744385, -0.06267313659191132, 0.031596601009368896, 0.1097545325756073, -0.10328253358602524, 0.14103999733924866, 0.02535456418991089, -0.014683663845062256, 0.010172992944717407, -0.031332552433013916, 0.03312808275222778, 0.12430816888809204, -0.08155066519975662, -0.02885526418685913, 0.0947631299495697, 0.008633047342300415, -0.05231117457151413, 0.004278659820556641, 0.12368541955947876, -0.003239959478378296, 0.027679920196533203, -0.03386223316192627, -0.04648124426603317, -0.15734829008579254, 0.042650312185287476, -0.0010647326707839966, 0.10548141598701477, 